58 300
great -0.0001823976 0.00014005168 0.0016909308 0.0030214724 -0.0031238836 -0.0024421667 0.0022114033 0.0031111725 -0.0016807251 -0.0012545005 0.002501814 -0.00052327773 -0.0015180192 0.0022562915 -0.0016591984 -0.0006177252 0.0010150118 0.00032350002 -0.002802642 -0.003214 0.0024315605 0.0016794378 0.0022291385 0.0002673547 0.0021253047 -0.0011201929 -0.0004006168 0.0019672452 -0.0025472876 -0.0013680713 -0.0024810883 -0.00032163647 0.0032123982 -0.002408341 -0.00076165126 -0.00060293596 0.002733931 -0.0020278716 3.2010244e-05 -0.0015859003 -0.0032448457 0.0016355504 -0.0029071565 -0.0015031217 2.3582908e-05 -6.364143e-05 -0.0025593522 0.003214236 0.0016792302 0.0031120297 -0.002725383 0.0015381669 -0.0013769531 0.00034494803 0.0028508483 -0.0014815348 0.0015052959 -0.0022358967 -0.0011518215 0.003164081 -0.0005212146 7.8691686e-05 -0.0013567775 -0.0025501875 -0.0005412694 0.0008812856 -0.00026750137 0.0018652837 -0.0009369083 0.0007895229 0.0018422885 0.0028197623 -0.00044595217 -0.0031078726 0.0014876369 0.00019171968 0.0024884634 -0.00024539145 -0.000870503 -0.0028961613 -0.00032549695 0.0009413399 0.0017872031 0.0024427387 -0.0018705399 0.00063749007 0.0020511209 -0.001615072 -0.00096600683 0.0022895539 0.0005647662 4.2438405e-05 0.001216113 7.916278e-05 0.003254769 0.0016924436 -0.00294122 -0.0023401813 0.0002820481 0.0021660547 -0.0028594001 0.0012594323 0.0017770637 0.0019557397 0.0024911622 -0.0021140494 0.00036891238 0.0020591747 -0.0010211105 -0.0020729862 -0.00020689255 -0.0027993785 -0.0018333904 0.0023862713 0.0011201188 0.0024694796 0.0022928703 0.002535188 -0.0011959386 -0.00027912174 0.00080433703 -0.0014482954 0.0027648227 -0.0033282032 0.002237571 0.0010475587 -0.0016708393 0.0014253535 -0.0005406758 0.0023077526 0.0033541713 -0.0014283065 -0.00017770087 -0.001982936 0.0013290604 0.0009978709 0.002295747 0.0020147953 0.003152232 0.0030206686 0.002651572 -0.0023754835 -0.0031218557 -7.94309e-05 -0.0010430745 0.0026250125 0.0019194128 -0.00056373654 0.0004762121 0.0005607743 0.0026114096 -0.003222411 -8.356138e-05 0.0011709889 -0.0002892088 0.0028807693 0.0029412052 0.0021662835 -0.00027318308 0.002619427 -0.0028673676 0.0011001653 -0.0015952764 -0.001634902 0.0012135751 0.0018002803 0.0025534644 -0.0019254045 0.002506998 0.0022731824 -0.0012577698 -0.0029077725 0.0018315924 0.002167669 -0.00022145943 -0.0022321388 -0.0023973198 -0.00087143725 0.0017258825 -0.0011741 -0.0031341913 0.001344235 0.0015809465 -0.0021649762 0.00032990298 -0.00069651 9.5645286e-05 -0.0032177854 0.0009603708 -0.001634777 0.0004024181 -0.0005022899 0.00067374326 -0.0025829868 -0.0009025896 0.0008325424 0.0017943482 -0.00082625065 -0.0031561907 0.0015104318 1.8591483e-05 0.0010272443 -0.002265549 -0.0004908647 0.0026140304 0.0024299244 -0.001197069 0.00093228236 -0.002750702 0.0020771755 -0.0015550122 -0.0011346206 0.0031327098 0.0002853389 0.0025477204 -0.002034351 0.0016724304 0.0032234518 -0.0028420717 -0.0017930411 -0.002330071 -0.0016164988 -0.0012723057 -0.0029504367 0.0026340254 -0.0016489037 0.0028631832 0.0017401656 -0.002203074 0.0013171316 0.0018738465 -0.002513006 -0.0024987464 -0.00075801316 -0.0029627653 -0.0004918831 -0.00011367037 0.0011443277 0.000502225 -0.00035970556 -0.0018364236 0.0005369715 -0.00029019755 0.0022623143 0.0013308933 0.0014549788 0.00050085766 -0.00092889543 -0.0014517518 -0.0003133862 0.0005080965 -0.00087379233 -0.0022988247 -0.0026123142 -0.0031068532 -0.0019867737 -0.0005428501 -0.0014091585 -0.0022271464 -0.0012734601 0.0014355796 -0.0012706821 0.0028572443 0.00047167402 -0.0024406973 0.0031793183 0.002628679 0.0018660829 -0.0023524608 0.0019930247 0.001332539 0.0017143283 0.0014075461 0.00063548016 -0.0010483124 0.002807062 0.0032569563 0.0013101399 -0.0010144775 2.4378287e-06 0.0003924687 -0.0027948015 -0.002752817 -3.947404e-05 0.0004077575 -0.0019050173 -0.0016149149 -0.002432345 0.0027802954 5.0533614e-05 -0.0014446727 0.001933012 0.003082714 -0.0013558635 0.0027218405 0.0018392167 0.001987473 0.00015751756 0.0027911833 -0.0023742928
good -0.0027385233 0.0031439927 -6.8595175e-05 -0.0006434491 0.0015548251 -0.0014256304 0.0009570176 0.0023917186 0.002016248 -0.0025086289 0.0031673762 0.001555245 0.001315431 -0.0020262836 0.0028109963 -0.00073848077 0.0030031023 -0.0017901851 -0.002736672 0.0022343877 0.00057426107 -0.0007272179 0.0031486982 0.0031814314 -0.0032541032 0.0008419413 0.0019944902 0.0013443553 0.0006376438 9.5862946e-05 0.00026254804 -0.0012616464 -0.0023531187 -0.000682447 0.0013304345 0.0029845326 0.0031491192 -0.0020133778 -0.0031248124 0.0032670952 0.0011282532 0.0016882928 0.0020973845 -0.0009766723 0.002456194 0.0009898742 0.0009655148 -0.0007487438 -0.0010163778 -0.0007802097 0.0014163093 1.9223537e-05 -0.0032196206 -0.003169995 -0.0020348798 -4.4059903e-05 0.00065749633 0.0031876634 0.0018800235 -0.0014099661 0.00010515363 0.001643668 0.0026037209 -0.00035967524 0.0014066726 -0.001881159 -0.00024057759 0.0027337316 -0.00081805413 -0.0031940166 0.0019499862 -0.0012831165 -0.0003751677 0.003271668 -0.0006931059 -0.0015921352 -0.0017687766 0.0023274336 -0.0019059053 0.00071328547 -0.0018009233 0.0020203737 0.0014232334 0.0009703858 -0.00048110497 -0.00091506133 0.0030193864 0.0017349258 -0.0006582041 -0.0031448214 -0.002426792 -0.0003676916 -0.00022728535 -0.000828995 0.0032579997 -0.0001456872 0.0019741196 -0.0024772964 -0.00085610995 -0.0018193098 -0.0023891437 0.00044694621 -0.002359726 -0.0006902923 0.0012180186 0.0018979145 0.00038934877 0.00071302196 -0.0014223262 0.0024084377 -0.00215699 0.0015298219 -0.0026797764 0.00068073615 -0.0016579799 -0.0013798388 -0.0010270497 0.0018555007 0.0020023957 -0.0017500852 0.00024048932 -0.0027971638 0.0025932926 0.0030600177 -0.0009474374 0.0003228079 0.0001897858 0.0017972878 -0.0028290246 0.0002414402 0.002335811 0.00078253524 0.00040087968 -0.0031821409 0.002862133 -0.0020399261 -0.0010034434 0.001135939 -0.00028110045 0.00042015995 0.0005999635 -0.0023249548 -0.0033282437 0.003045191 0.002056306 -0.0023098544 0.0010933378 4.5835845e-05 0.0015905312 -0.0023800435 0.0013479216 0.0014328394 0.0033245285 -0.0014920366 -0.0004490033 -0.0023583972 -0.0032740303 -0.0030556768 -0.00034539122 -0.002104797 0.0015844798 -0.0020280476 0.000797855 0.00029087908 -0.0011219442 -0.00033469882 0.003286589 0.0030415384 -0.001470436 0.0030689058 -0.001898328 0.002010753 -0.0010098384 0.0011581993 0.0010265651 0.002318006 -0.00081072765 0.002883146 0.0025459905 -0.0031303235 -0.0026702082 -0.002490996 0.00094132323 -0.0009497599 -0.0023640152 -0.002705901 0.0028432542 0.00072947034 -0.0030530738 -0.001640681 0.0010856732 -0.001542065 0.0016802473 -0.0013729683 0.0008921306 -0.0027351356 0.0020567775 0.0015831997 0.0002954948 0.0010092104 -0.0029223089 0.0007035987 -0.0002891042 -0.0031342772 -0.00310691 -0.0004952298 0.0014654443 0.0012817924 -0.0021691637 -0.0022792066 -0.0016942947 -0.00082394824 -0.002391281 -0.003218287 -0.0008691181 -0.0027863288 -0.002055401 -0.001982341 -0.00079689163 -0.00062485464 -0.0029549222 -0.00023308436 0.0027257248 0.0024905843 -0.0023969288 -0.0012444131 0.0010776694 -0.0032032623 0.00046671694 0.002185189 0.0019302964 -0.0029481957 -0.0015457101 -0.0026657896 -4.7462356e-05 0.0031099685 0.001980135 0.0017064993 0.0016924312 -0.0011420727 0.0031964404 -0.0024894553 -0.0024190969 -0.0007417948 -0.0002565922 -0.0011299034 -0.00018498294 0.0024667315 -0.0002198138 -0.0005035003 0.0009398967 -0.0028108289 0.00267563 0.0028297396 -0.0032224318 0.0008084732 0.0033758464 -0.0025069467 -0.0023799778 -0.0026283911 0.0028035196 -0.00024854278 0.0030979202 -0.0027618941 0.0012201061 0.00090657827 0.00033037784 0.0008332581 -0.002541767 -0.0030753645 0.00075001933 0.0020270138 0.0026527215 0.0018871418 -0.00026052457 0.0028164668 -0.0030590312 0.0011641976 3.2028118e-05 0.001304673 0.0024466582 -0.0022411197 0.0018540483 -0.0031414626 -0.00027115693 -0.0029038147 -0.0017234432 0.003123295 -0.00060813373 0.0010253618 0.0030523587 0.0030285392 -0.0027327605 -0.0009524375 0.0033845033 0.0017612895 -0.000487911 -0.002905026 0.0010259589 -0.0022484032
best 0.0026989866 -0.00144326 -0.00035297568 0.00033247584 -7.613859e-05 0.00030810048 0.0021022845 9.510685e-05 -0.0010838459 -0.0005140406 0.0019899078 0.0005053867 -0.00025912217 0.0031627223 -0.0016622526 -0.0003023267 0.0031025282 0.0022593127 0.0004747015 -0.0030073987 0.00037114 -0.0007693317 0.003103008 0.00041666563 0.00049782963 0.00079886086 -0.0006764618 -0.001630604 4.249817e-05 -0.0007352754 0.002238255 0.0029647546 -0.00018451121 0.0010300878 -0.0020052975 0.00058945984 -0.0022733572 -0.0029512795 -0.0019269795 -0.0029847946 0.0024013282 -0.0019619237 0.0027643 -0.0024490582 0.0011705712 0.0032583328 -0.0025874535 -0.0032983068 -0.0014097529 -0.0008787944 -7.492731e-05 -0.0029233315 -0.0028711227 0.0010052179 -0.0027278548 -0.002983324 -0.0007682947 -0.002841006 -0.002309259 -0.0027659668 -7.835859e-05 -0.001534825 0.002234774 0.0005248282 -0.0011306424 0.0020966819 -0.0019906298 -0.0015395546 -0.0024267382 -0.0014045336 -0.0006023969 0.0021957061 -0.0008778941 0.0015913441 0.002345245 -0.0024839712 0.0015206491 0.0020551654 -0.0009813121 0.0022235713 0.0020002907 -0.0021370489 -0.002297724 0.0009535336 -0.0005217787 -0.0020126344 0.0031839896 -0.0017177276 -0.0021146657 -2.5851614e-05 -0.00088156527 0.00011463104 -0.001146598 -0.00012604384 -0.00020172907 0.00027664885 0.0027640704 -0.0019113556 -0.00056353986 0.0018814208 0.0027380562 -0.0014468 0.0030277532 0.002790953 -0.0014770054 3.4675155e-05 0.0014212731 -0.0012717808 -0.0019176096 -0.0021783013 -0.0002784511 -0.00011933364 0.0015249596 -0.00081625086 -6.898972e-05 0.0008757193 0.0016401396 -2.7808896e-06 -0.002058257 -0.0031825516 2.9519995e-05 0.0022555941 0.00046805007 -0.0030285197 -0.0026807184 0.0022435444 -0.0012967295 0.0020304257 -0.0021802913 0.0028797453 -0.0021530436 0.0011173349 -0.00033695783 -0.0023557744 -0.0010547849 -0.00033818145 -0.0018273455 -0.0004337165 -0.002553465 0.00080918305 0.0030255052 -0.0008478554 -0.00039483985 0.0012088974 0.002872832 -0.0019698394 -0.0023581746 -0.0010221229 0.0030430364 0.00026004808 -0.0028860527 -0.00052418245 0.003155788 -0.0025111975 -0.0017650388 0.0031852012 -0.003055434 0.0012359356 0.0001848556 0.0022787016 0.002748673 -0.0009259937 -0.0013700675 0.003029548 0.0007138194 0.0020950239 -0.0031738807 0.0031963012 -0.00042963016 -0.0019831117 0.0009704949 -0.00015205605 0.0015788263 -0.00077031297 -0.0013447544 0.0007656294 0.0027467995 -0.0016917755 0.00089380617 -0.0026231252 -0.0022654869 -9.324072e-05 -0.0029679686 0.0009017078 0.00047726533 -0.0007754506 0.0017601646 0.003333984 0.0028806613 -0.0006727666 0.00070951885 -0.0013111474 -0.0028049683 0.0021331992 -0.0006568112 -0.0002743719 -0.0005973644 -0.0015245108 0.0013746236 -0.0014092587 -0.0032011583 0.0029742839 0.0013961027 0.0030498193 0.0022692601 0.00094620255 0.0032918141 -0.0014203759 -0.0022535147 0.0014103623 0.0012220055 -0.0019705545 0.0032716864 -0.0012011405 0.0032255342 0.00026697098 -0.002158574 -0.0007480822 -0.0024732437 -0.0010598158 0.00038701863 0.0031579153 0.0031018015 -0.0022916151 0.0011365195 0.00071872247 -0.0007928435 -0.003081841 0.00032576147 -0.0027343414 0.0021382365 -0.0019472538 0.0018210153 0.0033422492 -0.00013458754 0.0015519815 -0.0005912971 0.002473247 0.0013395139 -0.0030656047 -0.0007687299 0.0011602312 -3.592476e-05 -0.00039475766 -0.00034012628 -0.0006166704 0.00021103617 0.0013410038 -0.0014066518 -0.0012431123 5.560676e-06 9.56486e-05 1.0714395e-05 -0.0016173557 0.0014001742 -0.00072548253 0.00076640124 0.00024080435 0.0019323459 -0.0023164426 -0.0022529715 -0.0015151104 0.0032050607 -0.0005755885 -0.003173406 -0.00016220941 -0.0014014562 0.0020363373 -0.0032583585 0.0009919767 -0.0031075669 0.0003839004 0.0019900904 0.0024581288 -0.002518688 -0.001995212 -0.0022129423 -0.002610502 -0.0032337173 -0.0006875876 -0.00028082245 -0.002376914 0.002239811 0.0004153353 0.0019271001 0.00048020808 0.00023226316 -0.0024351 -0.0007154788 0.0014383555 -0.001632465 0.00042709723 0.0009974603 -0.0004921957 0.0033915816 0.002824368 0.00083763385 0.0023624736 0.0020112179 -0.0018808187
food -0.0017203041 -0.0021372198 -0.0025900255 0.0027868631 -0.0006703676 -0.00238831 -0.0013263491 0.00182191 -0.00097119913 -0.0012610996 0.00059794134 -0.0009493528 -0.00054715795 0.0004360894 -0.0010347399 0.0028342933 0.0013536264 -0.0033226782 0.0020610758 -0.0023374406 0.00024115728 0.0014661069 -0.001741473 -0.00067728834 0.0026783606 -0.0013907927 -0.0026044017 0.0031251991 -0.000786996 -0.0016238316 0.0028929177 0.0014100267 0.0014970873 0.0031274313 -0.0028021417 0.0018183455 0.0007324684 0.0013431978 0.0005791693 0.0014795348 0.0014559402 0.0019852328 -0.0010716358 -0.0015512487 -8.874185e-05 0.00090924936 -0.001087361 0.002037508 0.0014083423 0.0026213685 0.00085662893 0.0027275358 -0.00045006126 0.0027843935 0.0012635513 -0.0026640126 -0.0013201354 -0.00079635275 0.0016528781 -0.0002636614 -0.00091593567 0.0025713171 0.0031202105 -0.0005191457 -0.0017272362 -0.0015134116 -0.0015764993 -0.0031756072 0.00042671838 -0.0013797286 0.0008521856 0.001919659 -0.0013145028 -0.0032556453 0.00058117777 -0.0021999364 0.000825403 -0.0012661859 0.0023851644 0.00019789203 0.0011419235 -0.00090617675 -0.00063115224 0.0026772425 0.00048516836 -0.0019624953 -0.0025685069 0.0004226671 0.0022305972 0.0018944661 -0.0029672524 0.0028470056 0.0013776362 0.0025241014 0.003310182 -0.0024053857 -0.0029836076 0.0019481316 0.0031340604 0.0012134749 0.002374186 -0.0005059992 0.0026842202 -0.0031106023 -0.0026720525 -0.0022979267 -0.0013218116 0.001693815 -0.0013457588 -0.002776228 0.0027238796 -0.0012882794 0.0028912541 -0.0016216865 0.0013026149 0.0016990758 0.00081718276 -0.0009471077 0.0009984775 -0.0028445488 -0.00091251533 -0.0008058001 0.0024173255 -0.0012203344 -0.0022197436 0.0015410883 -0.00020327076 -0.0012504524 0.0023260247 0.0013484793 -0.0012449123 0.0002741766 0.0030849297 0.0024877423 0.0021768715 0.0016317205 0.0007921508 -0.00064077193 -0.002160812 -0.00015327192 -0.0005065418 -0.00027567567 -0.0021672123 0.0025225447 -0.0022052543 -0.0024046456 -0.00097347185 -0.00053854595 -0.00256072 0.00020379579 -0.0017501268 -0.00047628186 -0.0024537304 0.0006542149 0.0010652998 8.714899e-05 -0.001880298 -0.0006017678 0.0023007388 0.0013181214 -0.002992172 -0.0010949838 0.0007419101 0.00075750396 -0.0031194773 0.0015333295 -0.0029217952 -0.0024462894 0.001185187 -0.0011112404 0.0011650743 0.002979003 -0.0011788905 0.0031190957 0.0006303132 0.0032874306 0.0018336658 -0.0030871164 -0.0010810805 0.0022326277 0.0018499902 0.002945295 0.0022376287 0.0026365267 -0.003328464 0.0014337656 -0.0015764062 0.0012552562 0.0020747173 0.0014125808 0.0025558742 0.00053524465 -0.00048256957 0.0019492405 -0.0018838478 -3.797975e-05 0.0031710202 -0.0018681211 0.001300042 -0.0027009533 0.0032371012 0.0027252394 0.00043073087 0.0016808476 0.0005308163 -0.00217922 -0.00047056176 0.0022050692 -0.0015317812 -0.0013308489 0.0015991112 0.00080900313 -0.0005854652 -0.0009806937 0.0020541423 -0.0019397632 -0.0011274109 -0.0022430057 -0.0014317782 -0.0029368305 -0.0014578567 -0.0028344225 0.0004689684 -0.0029849086 -0.0033174844 -0.0027720544 -0.0021914616 0.0022188067 0.0012295528 0.0001263992 -0.00094096415 -0.0025169859 0.00016013354 0.00024161745 -2.8294555e-05 0.0003249355 0.00028689226 1.7451204e-05 -0.0026419426 -0.0020292809 -0.0027722574 -0.0004824167 0.00061305944 0.0024786636 -0.00065802847 -0.00083475455 0.0032000632 -3.0216961e-05 -0.000799571 0.0028975764 0.00092736725 -0.0017943989 0.002287365 0.001465891 -0.002398333 -0.00014148283 0.00034753524 0.0019237632 -0.0006412865 -0.0009968582 0.00058431434 0.0002706017 0.00045725572 -0.0009370449 -0.0020271959 0.002466799 0.0026262745 0.0028495595 -0.0029657495 0.00094779814 -0.0011974679 0.003175534 0.0009849919 0.0015423651 0.00079105824 0.0022596053 -0.0018668309 0.0026799196 -0.0008744151 -0.0015114538 -0.0006772433 0.003250997 -0.0023124416 -0.0006967101 0.0023512084 -3.0709307e-05 -0.0021330277 -0.002123474 0.0029822458 0.0021670728 0.0016370561 -0.0010264231 -0.003051092 0.0012905514 0.0024811258 -0.0018169236 -0.0025900383 -0.0010043357 -0.0015807743 -0.00081397797
try -0.0006441011 -0.001715876 0.00317575 -0.0031085033 0.0015239235 0.0017385839 -0.00043071384 0.0031008343 0.0033137968 -0.0018326303 -0.001977508 -0.002262402 -0.0026583371 -0.00094162865 -0.001894599 -0.0027995533 0.00030880063 0.0010165527 0.0020954905 -0.00093507755 -0.0014972914 0.00039841514 0.000106793814 0.0027240734 4.8789243e-05 0.0024249186 -0.002794286 0.002836733 -0.0006837011 0.002872742 -0.0025058046 0.00059654564 0.00038675344 3.624557e-05 -0.0016885041 -0.0030368543 -0.0023812626 -0.0027067838 0.0006638383 0.00015513397 -0.00060663506 0.002337036 -0.0008270845 -0.0004895536 -0.0029201594 -0.0032746904 0.0029999649 -0.0019017436 -0.0021004472 0.0017369299 0.002251705 -0.0022903017 0.0003133391 -0.0019432555 0.00054828473 -0.0014002175 -0.0011556303 0.0007702376 0.0029265946 0.0022692399 -0.0032231116 -0.0019037777 0.0026541953 0.00068637036 -0.0014466601 0.00026372253 0.003200861 -0.00033610294 -0.0031768682 0.0005567237 0.002078286 0.002133831 0.0014014348 -0.001934673 -7.2728726e-05 -9.51288e-06 0.0015363124 -0.0026862712 -0.002688461 9.550739e-05 -0.0029100445 0.0019512493 -0.00017173459 0.0034473413 -0.0017774275 -0.00015326536 0.0026151838 -0.0013736952 -0.0016105439 0.00055396766 0.0009243941 -0.0008791276 0.0021863172 -0.002541814 0.0011759166 0.00018004807 0.0029640007 0.0020028513 0.0022543923 0.002649478 -0.0031667862 0.0032314314 -0.0025746103 -0.00083641656 -0.0016479348 -0.0017073241 -0.00267152 -0.0025788308 -0.0015884324 -0.00041551478 -0.0017700454 0.0020349969 -0.0031445185 -0.0017769218 0.0031321158 0.002381235 0.0025837563 0.0014138705 0.00021580773 -0.0021100366 0.0020218692 0.0009217343 0.0025678284 0.0020944935 0.0026104373 0.0029658177 -0.0033332228 -0.0023094784 0.0004926435 0.0022041993 0.0025173326 0.0018929318 0.002596356 -0.001794363 0.0022415784 -0.0013261673 -0.0030457745 0.0030338608 0.00040076705 -0.0009896453 -0.00083130423 -0.0014712943 0.0015511302 0.0015070947 -0.0008940384 -0.0024621326 -0.0012377037 -0.00014908801 0.0020289312 -0.0009638838 -3.739156e-05 0.00023389237 -0.0023681393 0.00068654073 -0.000471002 0.0010054065 0.0015685946 -0.00048816047 -0.00096380705 0.0026677556 0.0016917969 0.0022719437 0.0014652245 0.002977492 0.002514025 -0.0003711023 0.0029047453 0.0015543362 0.0018334858 -0.00041511684 -0.0006995313 -0.0014846623 -0.0028270625 0.0010142638 0.0030022748 0.0029912475 -0.00067834114 0.0019908973 0.0012816981 -0.0013936092 0.00068435335 -0.0017730341 0.002673784 0.0017749508 0.001008152 0.0013665481 0.0029971525 0.0025126403 -0.00024378546 -0.0024145406 0.0028290588 0.002452093 0.0005063633 -0.00042255927 -0.0019475778 -0.0015796011 0.0028768734 -0.0010757311 -0.002090118 0.0033118746 0.002552377 0.0030356897 0.00039584984 -0.0028153097 0.0028579987 -0.001262075 0.0019409735 0.0015241185 0.003246567 -0.0030993964 0.003041496 -0.0031860159 -0.0022759077 -0.0030639428 -0.0018153419 0.0024738135 0.0030033132 -0.001203776 0.0012401215 -0.0012584502 0.002680557 0.00198204 -6.834001e-06 -0.0012832235 -0.0024235176 0.0015848975 0.00051890075 -0.0009080183 0.0026042196 -0.0013607331 -0.0030317113 -0.0007740762 7.5093244e-06 -0.002136076 -0.0019029984 -0.0028059212 0.0030991635 0.0025202555 -6.724006e-05 0.0024077224 0.002693325 -0.000306764 0.0022024764 0.0012499717 0.0017134189 0.0023820482 -0.0015846115 -0.00075417396 0.00029551832 0.0014295786 0.0011074579 0.0016983711 0.0016120692 -0.0028691376 -0.0010793908 -0.0024272173 0.003300937 0.0016904895 1.393799e-05 0.0013309742 -0.002562845 -0.0021313624 0.0010871937 0.0021204192 0.0013008325 0.0020188289 -0.0005812431 -0.0010588763 6.206309e-06 -0.0010385036 -0.0018777774 -0.0026347393 0.0021784292 -0.00039220206 -0.0006405726 -0.0025778536 0.0031790407 0.00031847155 0.0005271351 0.0008463037 -0.0024716642 0.00054879184 0.0010014664 -0.0028102982 0.0016398265 0.0008160571 0.002485075 0.0017024522 -0.0010060697 -0.0023865616 0.0023971722 0.0006868346 0.0017703535 0.002177492 0.00071634876 -0.0019879541 1.8878758e-05 0.0027714202 -0.002000163 0.0031343559
service -0.0024015722 0.0014464024 0.0007129741 0.0024741434 -0.0016462095 -0.001581335 -0.0019914708 0.001177951 -0.0014994658 0.0028339552 -0.0014018824 -0.0030470649 -0.0016179133 0.002183629 -0.002135738 -0.0017590128 -0.0023882207 0.0019980764 0.001111789 0.0009024669 -0.0010345831 0.0020135108 -0.0020721138 -0.00063938514 -0.0020033703 -0.0003358423 -0.0007078732 0.0028425695 -1.4089649e-05 -0.002902234 -0.001780541 -0.0023019582 0.00091986393 0.0031756256 -0.0019145088 0.0027834645 0.002886803 -0.0023825793 -0.0029380918 0.003148678 0.0027705953 -0.0015870864 -0.0022386862 0.0026029625 0.0012841863 0.0027475047 -0.0025162548 -0.003140109 0.0005525561 -0.0032665126 -0.0016157294 -0.0011325716 0.0032130042 0.002929598 -0.0009339446 0.0019781727 0.0027525865 -0.000731344 0.003199911 0.0024094302 0.0006975953 -0.0012843573 -0.0016850304 -0.0010020492 0.0026197846 -0.0020153357 -0.00097343663 0.0030843352 0.0011290669 0.0020351072 -0.0026743924 -0.00021734944 0.0018785323 -0.0016079816 0.0025357783 0.0031161315 -0.00013414881 -0.0006710691 -0.0001991202 -0.0019369347 -0.0028159835 -0.00047844095 -0.0008763396 0.0015593854 -0.0022682 0.0018038065 -0.0022408077 -0.0026048615 0.0028797996 0.0029903422 -0.0011310215 0.0011473666 -0.0019151 -0.0028983892 -0.0017904838 0.0022648673 0.0021643634 0.0031421974 0.0023427971 0.0022638275 0.0004449467 -0.0032373073 0.0015492921 -0.00014680033 0.002110745 0.000548181 -0.0010330161 0.0026084082 0.00047194216 2.1312502e-05 -0.0015814216 -0.0028313664 -0.0025584963 0.0028881717 -0.0029833773 0.0030372133 -0.00307988 -9.2768954e-05 -0.0005908071 -0.0030487399 0.0028904364 0.0022765796 0.001007587 0.0015777872 2.6541484e-05 0.0031873223 0.00231351 -0.0033278668 -0.0014453948 -0.00036833272 0.0010487557 -0.0014148828 0.0004989482 -0.0026726788 0.0009701377 0.0016224108 0.0016495785 -0.0010749864 -0.002825964 -0.0031296557 -0.00024409118 -0.0024839698 -0.0023094618 0.0020797793 0.0023771946 0.00070064067 -0.00267554 -0.001917026 0.0026872503 0.0012785866 -0.0017328976 -0.0025012728 0.00025503564 0.0011661302 0.00071188447 0.0010759461 -0.001915999 -0.0033102534 -0.00237676 0.0001341224 0.0015222715 0.0015304867 0.0006026879 0.0017624684 -2.5411848e-05 0.0013695144 -0.0030552533 0.0025732568 0.0020633377 0.0017411194 0.0023854314 0.00283138 0.0002702824 -0.0005646069 0.00019846816 -0.0030959698 0.0027664562 -0.0021646165 0.002823771 -0.0013916818 0.00021382509 -0.0030114162 -0.003227479 -0.002647957 -0.002627368 0.0001309644 -0.002348954 -0.00158729 -0.0017206111 -0.0014565963 0.0023597167 0.0016356378 0.0028425192 0.0023789513 -0.001900766 0.0023575244 -0.0031087184 -0.0008801523 -0.0025647837 0.0013949197 0.00059517805 0.002342767 0.00097632105 -0.0023588045 0.0026103652 -0.0020024732 0.0030046655 0.001029549 -0.001329133 -0.0015546067 -0.0015039312 -0.0021114985 0.0031429168 -0.00090209366 0.0026284268 -0.003238181 0.0006612684 -0.0004757889 0.0025046598 -0.0030804083 0.002502835 -0.0016880542 -0.002014418 -0.0019458184 -0.0011442244 -0.0011662979 -0.0010346828 -0.0024999687 0.00021562887 -0.00019547547 -0.0005301354 0.0012318883 -0.0025668286 -0.0010379709 0.001651587 0.002888926 -0.003270151 0.0024218224 0.0017889094 -0.0013369545 0.002873074 -0.003107412 0.0024090633 0.0017888237 0.00044317538 -0.0017744058 -0.0013794607 -0.0011549318 0.00054355344 0.00054392224 0.0024830422 0.0033210234 0.0030112993 -0.0013486837 0.0031837348 -0.00022355212 0.0016681858 0.0008571925 -0.00026434648 0.001191959 -0.0017571992 -0.001923628 -0.0024925931 0.00058065343 0.0021444007 0.00031083863 0.00047066208 0.0010956281 0.0026572342 -0.0025543699 0.0007379298 -0.0024971927 0.0012294425 0.0031605405 0.0025223198 0.002165371 0.0027071843 0.002212209 0.0022304293 0.0028977282 -0.0016519179 0.003089158 0.0016599452 -0.00067905156 0.0028298898 0.001702531 0.003194633 0.0009599781 0.0032996826 0.00040641424 0.0030726667 0.0012397028 0.0022048438 -0.0011912932 0.0023162677 0.002444412 -0.0006922145 -0.00062897697 0.0012475353 -0.0023778435
get 0.0032424487 -0.003196807 -0.0021691623 0.0009118357 0.0021594716 -0.0018716884 0.0009862272 0.00315992 -0.002273498 -0.00205477 -0.0016018375 -0.0012372835 0.00057375804 0.00329983 0.0021375252 0.00010613926 0.0008981119 0.0027986874 0.003019145 0.0018183916 0.0019802903 -0.0025374293 -0.0013155554 -0.0018609352 0.0020327517 -0.0007313198 -0.0030204048 0.0025670675 0.0027441392 -0.001169643 0.0030918915 -0.00025927258 -0.0011731962 -8.917543e-05 9.031791e-05 -0.0010945933 0.0009986823 0.001858374 0.0023193527 -0.0029774 -0.0007463291 -0.0018842706 0.002517635 0.0021365555 -0.0014217524 0.00085575395 -0.0019694169 0.00010668311 0.003177026 -0.00085128745 -0.0017031904 -0.0024597088 -0.0009702244 -0.00020419294 0.0011827428 0.0032880155 -0.0011264378 0.0006985329 0.0032660265 0.0005444352 0.0003516076 0.003251634 0.0031479604 0.002602818 -0.002088174 0.0033879627 0.0019653619 0.0030706238 -0.0007063219 0.0011558152 0.0022878684 -0.0012541891 0.002271061 0.00079437916 0.0031789977 -0.0010117912 -0.0010525023 0.0020894336 -0.0030293132 -0.0024024146 -0.0022165491 -0.0002340684 -0.00083448214 0.0024422554 0.0031086172 -0.00030115063 0.000504311 0.00068132253 -0.0005855613 -0.0026493347 0.0025305538 -0.0014588245 0.0015661863 0.0030485282 0.0010705219 0.0010688683 0.0014037689 -0.00089074095 0.0012516889 0.0001430004 0.0018835341 0.0018663881 0.00064278836 0.0019570908 -0.0030081547 0.0021066314 0.0030732516 -0.00138452 0.000459304 -0.001743592 0.00025809315 0.0009043565 0.0027745375 0.0001863075 0.000830153 0.00049021153 0.0028197018 -0.0019145916 -0.0020043645 -0.0013590866 -0.00074216066 0.0017393787 -0.0027207953 -0.000980045 -0.0027644513 0.0017962904 -0.0009073339 -0.0030775282 0.0013997471 0.0030902396 -0.00093811325 -0.0019017411 0.0010567174 -0.00026965555 -0.0032586697 0.0028975825 -0.002457315 -0.0016600412 -0.0009480267 -0.001905278 0.0005520962 0.0031607072 0.0014364409 0.0027520352 -0.00015486252 0.00019749414 -0.00096483587 -0.002964953 0.0011398504 0.00068546896 -0.0031367398 -0.0017129593 -0.0032442065 -0.0018941283 0.0013666734 0.0029807654 0.0012835487 0.0007323745 0.0026621972 -0.0002761329 -0.0005021408 -0.0028891216 -8.5611486e-05 -0.00077067653 0.00013402164 0.0024282315 -0.002382837 -0.0012893825 -0.0021934037 -0.0011107547 -0.0011265717 0.0007532625 0.0011309189 -0.0016344601 -0.001477415 0.00038646828 0.0017854403 0.0017359307 -0.000967297 -0.0013585595 -0.0018837291 -0.0001119973 0.00056270394 0.00046875837 0.0023785457 -0.0009089377 8.9836394e-05 -0.00171286 -0.0003383031 -0.0026289383 -0.00027922838 0.0004760908 -0.002956974 0.0029573215 -0.0030700183 -0.0032900122 -0.002842655 0.0023986066 0.0018636757 0.0031098002 0.0008186066 0.00028287148 -0.00083463325 0.0030582347 0.0009944253 0.0013106352 -0.0003716135 0.00036415947 0.0022275564 -0.00024764898 0.0010720794 -0.0003323865 0.0017814477 0.0011907637 0.0009220716 -0.00178205 -0.0016267934 0.0013062195 -0.0020024255 -0.00016708214 -0.00014905441 0.001199444 -0.002823944 0.0028410614 -0.0005071896 -0.0018143661 0.0014204804 -0.0006683324 -0.0026121796 -0.0014984065 -9.162184e-05 -0.0030236081 0.00014388087 0.0008900799 -0.0011872042 0.0009170966 0.00082164217 0.0033747945 0.0005204871 0.0005912171 0.00096775126 -0.00074374105 -0.0029094531 0.0026763706 -0.0006532591 -0.0033104676 -0.002169934 -0.0013607341 0.0013373448 0.0017182427 0.0020643051 -0.0022626335 0.00033710737 -0.00095426093 -0.0017919352 0.0023128774 0.0014172865 -0.0009912684 -0.002838054 -0.0017619882 -0.00020158746 0.0025860355 0.002094203 -0.0028894844 -0.0032290411 0.0024089273 -0.00068002363 -0.0011550718 0.0018322777 -0.0019100589 0.0016599672 -0.00011781617 -0.0022898722 -0.00013675392 0.0021342123 0.0031467606 0.00080693205 0.0017312174 -0.0017465734 -0.00024964448 -0.0017838267 0.00042265307 -0.0006197187 -0.0011814354 -0.0023372164 0.0032214294 0.00095856545 -0.00072365004 -0.0013731415 0.0025990969 -0.0020915237 0.0011172672 0.00029503714 0.002824762 0.0023772058 -0.00090141926 0.0008930752 -0.0005549611 -0.003088519 -0.00091538404
place 0.0004513357 0.0022165854 0.0033291387 0.003030211 -0.002667372 0.0020821479 -0.0018552965 -0.0002254081 0.00014754874 0.0021819493 0.0015107465 0.0015304735 0.0031433029 0.00021636198 -0.0020284008 -0.002110188 0.0021901329 -0.001739767 -0.0009670796 0.0013063032 -0.00075536774 -0.001993007 -0.00079903024 0.00042768999 0.0007165149 0.0020446673 -0.001795113 0.0010687315 0.002369544 0.0006938508 0.0018336433 -0.0016432523 0.0020902453 -0.0024915203 0.0011778059 -0.0030453894 -0.00080664427 -0.0030629782 -0.00051608257 -0.0017889853 -0.0013475034 0.00035043003 0.00093361037 -0.00052523613 -0.0026940438 -0.0019190138 0.0002926712 -0.0013047351 -0.0031150996 -0.0002674255 0.0022271255 0.0019959307 -0.003310578 0.0011057939 -0.0019762593 -0.0030356003 5.008625e-05 -9.161558e-05 -0.0022882388 -0.0020622034 -0.000781402 0.0023469985 -0.0024880439 0.0025830588 -0.00017084091 0.00042167323 0.003189487 0.0015925457 -0.0012226542 0.0012818929 0.0011946852 0.002136151 7.287403e-05 -0.0015176017 0.0004903505 -0.0017866478 0.00046366174 0.0016554237 0.0017169731 0.003055115 -0.0025513237 -0.001778791 0.0021152436 0.00055614224 -0.0021771768 0.00029136683 0.00091322 -0.0008304259 -0.0015768388 0.001692641 0.0032496608 -0.0024612527 2.2617676e-06 -0.00084131595 -0.002073056 -0.0004533485 -0.0017095113 0.0030234999 -0.0019196105 0.0012628131 -7.2310075e-05 0.0014554245 0.00074103574 0.0033839296 0.00020122438 -0.0018775362 -0.00039384703 0.00071391993 -0.0011868683 -0.002610487 -0.001947797 -0.0022664089 0.0021520287 0.0013095037 0.0027248526 0.0022209939 -0.002029838 0.0008935514 0.0028847442 0.0004407782 0.0010375058 0.001994415 -0.0029499258 0.0030079107 0.0022387027 0.002905081 -0.0027618504 0.0020003228 0.0022262293 -0.00038623431 -0.0020409191 0.0017794677 -0.0022600864 -0.0018581424 0.0012180019 0.0027559726 0.0028898048 -0.0014893833 -0.0030824046 0.0031268983 0.0020900639 -0.0013764185 -0.0028733064 -0.0015371137 -0.001340968 -0.0010997304 0.00020735938 -0.00013762467 -0.0010307404 -0.0020147427 0.0031368206 -0.0016289926 -0.0024292185 0.0025680882 0.00086631277 0.0029545312 -0.0015449254 -0.0023223816 0.0002920189 -0.00033017562 -0.0031542706 -0.0005012187 0.00097216264 0.0022374263 0.0023023272 0.0010799167 -0.0015032039 -0.000603421 -0.0012954402 0.0019646527 -0.002132097 0.0007187017 -0.00042835885 -0.0019367174 -0.0023809792 0.001962328 -0.0028122384 -0.00026671402 0.00097158086 0.0026145943 -0.0024454838 0.0011523213 0.0032090084 -0.0023557341 -0.0012406856 0.0017014627 0.0018118649 0.0006169693 0.0026993267 0.00021978508 0.0006479294 -0.0005075447 -0.0027852957 0.0011147063 0.00064515864 -0.0029813363 -0.0002212721 -9.478919e-07 2.7864204e-05 0.002920972 -0.0008425655 -0.0019568137 0.0024952467 -0.0024594404 -0.0029187622 -0.0006269783 -0.0027786999 0.00019128385 0.0006564026 -0.00081707083 -0.002181785 -0.0001902332 -0.00033555223 0.0011575815 0.0027661214 0.001938302 0.0027665684 -0.0030547443 0.0031396928 -0.000862793 0.0029388 0.0007976944 0.0011950961 -0.0032910123 -0.0031867349 0.002946579 -0.00091598544 0.00092175533 0.0021177449 -0.00010294126 0.0032850516 -0.0003836787 -0.0032536439 -0.002284959 -0.0004311456 -0.002843125 0.0024791646 0.0012420757 -0.0029029425 0.002783742 0.0029914319 0.001920539 0.0023043735 -0.0031683233 0.00015755893 -0.0031248007 -0.0012165603 3.869988e-05 -8.484388e-05 0.0005169191 0.0011296358 0.00071439793 0.0018525665 0.0024855817 -0.0020075853 0.002635746 0.0020793155 0.0032811703 0.001475154 -0.0011569674 -0.0012425637 -0.00022942304 -0.00050092314 0.0032322844 0.00034512285 0.00136663 0.0012182639 -0.0029160115 0.0021650984 0.002755694 -0.00058325985 0.0007394947 -0.0021699413 -0.0020469343 0.002732168 -0.0009765887 0.0023074546 0.00055351056 -0.0007423101 0.0010344203 -0.0013529961 -0.0005656331 0.0004256902 0.001647276 -0.00046944479 0.00022645133 -0.0026640855 0.0031857744 -0.0029135705 0.0023849353 0.001355273 -0.0022803855 -0.0017494538 -0.0026178495 -0.001620886 0.002408208 0.0032377667 0.00070682575 0.00027513012 0.0031314527
coffee -0.0016690295 -0.00038773232 0.0010848904 -0.0021508364 -0.0032314875 -0.003140393 0.003046153 0.0018558052 -0.0015864904 -0.0027820973 0.00047379898 0.00094689685 -0.00043389268 0.00045961287 -0.0014541377 0.001580623 0.00053244975 0.0029432343 -0.0033417167 -0.0017937426 -0.0030394907 -0.00010114591 -0.002637679 0.0016997814 -0.0021404636 -0.0019696679 0.0016360813 -0.0026950054 0.00044776956 -0.0024479933 0.003304149 0.002881091 0.00061677425 0.0019529897 0.0015472131 -0.0019658138 0.0032888367 -0.0032587028 0.0027026308 0.00090694084 -0.0010366266 -0.0012233754 0.0030268081 -0.0018471299 0.0027503872 -0.0019576598 0.002798323 -0.00016724865 0.002673519 -0.0010358201 0.001998743 0.0029422566 0.00085354457 0.0004939381 0.001688757 0.0026751503 0.0028653461 0.002861609 0.0023666318 0.0026948925 0.0028787488 -2.647886e-05 -0.00031698163 0.00057236146 -1.5640742e-05 0.00027049147 -0.0028640372 -0.003187887 -0.000800931 0.003001832 -0.0012020667 -0.002301968 0.0016566954 0.00031937097 0.0006597111 0.0012200705 0.0011732915 0.0019162165 0.0004049609 0.00027496374 0.0029851364 0.00092564675 -0.0015918956 0.002268181 0.0017456347 0.0009655424 -0.001031848 0.001106038 0.002163969 0.002375657 0.00034389689 -0.0028648186 0.00010444378 0.00013623277 0.001343131 -0.0031576941 0.003254758 -0.0023242962 0.0019044407 -0.0031203302 0.003216872 0.0024592008 0.0004452877 -0.0011202263 -0.00015406964 9.43601e-05 -0.0021442622 0.0019253626 0.0007594811 0.0012579636 -0.002475929 0.0028388188 0.00019170214 -7.095788e-05 -0.0030292897 0.001382946 0.0022532973 0.002449091 -0.002095526 -0.002702519 -0.0018393222 -0.00017473528 -0.0027891917 -0.0027776903 -0.0006599934 0.00041717532 -0.0032034297 -0.0012753529 0.00024209387 0.0023142905 0.0006136272 -0.00018403195 -0.0024640348 -0.0023045065 -0.00019659741 0.002536582 0.0018055348 -0.00051119656 0.00036787995 -0.0032408296 -0.00046067606 -0.0015841587 0.0018764539 -0.0007540671 -0.0015915041 -0.003162942 -0.0004435235 -0.0024145048 -0.00056158303 -0.0013682498 -0.0007907323 -0.0010995043 -0.0027022462 -0.000412498 0.00057797896 -0.0012853163 -0.0025940316 -0.0012212467 -0.0030421643 -0.00020841323 0.0019351677 -0.0009608085 0.0010296422 0.0017036342 0.0028252965 0.0018713989 0.003143488 -0.0032077958 -0.0026393316 -0.0022132627 -0.0024961696 -0.0026348988 -0.0025775337 -0.0009699766 0.00049802643 -0.00096114044 -0.0029547203 0.001628181 0.0003044931 0.0015617472 0.0023960453 0.0025891918 -0.0003098393 0.0012085548 -0.0017373948 0.0006371721 0.0015825928 0.0033627248 -0.0010258168 0.000908696 -0.0018833689 -0.00070909486 0.0026634391 -0.0012825977 -0.0003955201 -0.0031340376 -0.0031754728 0.0029355658 -0.0018829756 0.0016854773 -0.0023429082 -0.00080987345 -0.0026682725 0.0024687748 0.0020830254 0.0017276156 0.0028030204 -0.00020482617 -0.003083116 0.0030526214 -0.0016733663 0.002555389 0.0018604092 -0.00037539916 -0.0025202802 -0.00049965235 0.0020567116 -0.0023904173 0.000460307 -0.0027066001 0.002932243 -0.0009371586 0.0031347438 -0.0019555101 -0.003234062 -0.0028892392 -0.0013151906 0.0015649323 -9.711149e-05 0.0030800758 0.0010613453 0.0012314691 0.0009761671 0.0027591535 -0.00086720986 0.0024888283 -0.0031831395 0.0009894312 -0.00020033763 8.3282495e-05 0.0022874302 -0.0009798461 -0.00078741426 -4.3002325e-05 -0.00016474848 -0.0012302678 0.002106704 -0.0022092054 0.0026327646 -6.9046896e-06 0.00088038575 0.0010676301 -3.808782e-05 0.00054868846 -0.0010738384 0.0015747162 0.0001348261 -0.001075424 -0.0029465614 -0.0033599036 0.0001235184 -0.0019347717 -0.00032490675 -0.0014363957 -0.0029090815 0.00036945284 0.0020211206 -0.0006862397 -0.0024311554 0.0010853687 -0.00013793894 -0.0018579017 -0.00036535593 -0.00021705449 -0.0010687122 -0.0032912968 0.002582058 0.001270869 -0.00089277053 0.0024452342 0.0001594333 0.002406028 -0.00052778726 0.0025125078 -5.0798903e-06 -0.0020323854 -0.0015843988 0.0032218457 0.00020313164 0.0003569331 0.002853801 -0.0020650027 -0.00056860945 -0.0027020127 -0.0021674163 -0.00282124 0.0013385997 0.0009045054 0.0018981184 0.00082761084
one 0.00069311674 0.0019479475 -0.00071977224 0.0010443234 0.0027980362 7.3181e-05 0.0021580495 -0.002176193 0.0022008277 0.0015540799 0.0017330389 -0.003306823 -0.00015632727 0.0010967735 -0.001953705 -0.0022624952 0.0021760322 -0.002271107 -0.0017527243 0.0026635984 -0.002347992 0.0028393844 0.00019216034 0.0014955793 -0.0010271226 -0.001783856 -0.0030415591 -0.00019261772 -0.001729034 -0.0011008964 0.002733205 -0.0025205947 -0.0020816545 -0.0017383747 -0.0021684407 -0.002911845 -0.00032697068 0.003097457 0.0027055936 -0.0017560899 -0.0027330823 -0.00079586974 -0.0030790044 -0.0017408264 -0.0019469463 0.0010421666 -0.0025141668 0.00045650612 0.0007842069 0.0017805386 -0.00066392234 -0.0032294723 0.0017433712 -0.0019105885 0.0016474896 0.0006822244 0.0029543524 0.0005603255 -0.00060441456 0.0021924202 -0.0023306129 -0.0028214678 0.0012938355 -0.0008392469 -0.0014249074 -0.00057958654 -0.0033084864 0.0001096271 -0.00037975487 -0.00095478585 0.0008245365 0.0015933504 0.0021496261 -0.0026827983 -0.0015993431 -0.0029243585 -0.0029753302 -0.0012225845 -0.0004198443 -0.002732399 -0.0018186655 -0.0007236816 0.0020750933 0.00062045944 0.002792156 -0.0027628294 -0.0015107421 -0.00026873683 0.0029954873 0.00038537438 0.00054748275 0.00039781144 0.0010124259 -0.003116758 0.0011093353 0.0018359475 0.001793713 0.0014821676 -0.002708581 -0.0013409132 0.002805353 -0.00017640865 -0.0031117478 0.0016218905 -0.002032432 0.0021672952 0.0017870367 -0.0016752377 0.0008148256 0.0018012736 -0.0012528985 -0.0005139135 0.003096922 0.0030293611 -0.003152177 0.0025491142 0.0032958253 -0.0009426709 0.0008893175 -0.0010359259 0.002890787 -6.468685e-05 0.0018532021 0.0030433754 0.0013459452 -0.0023274724 -0.00068571605 0.00029988223 0.00071794866 0.0010307231 0.0031839944 0.0015178808 0.0033201184 -0.0029711102 -0.0018857048 0.0007102263 0.0012366005 -0.00034146314 -0.0023416153 -0.0011326155 -0.0028343725 0.0030911642 0.0011558064 -0.0025964575 0.0010619158 0.0013754825 -0.0019292772 -0.0019918983 0.0003576469 0.002963759 -0.0032072726 -1.35473065e-05 -0.0022694597 -0.00031603136 0.001008232 -0.0016034029 -0.0009957425 0.00018314022 -0.0021517642 0.0024821467 0.0014393773 -0.0028331429 -0.00075269525 0.0011191913 -0.0027665547 -0.0023553595 -0.0028457176 -0.0018377908 0.0029583073 0.0024106426 0.0009331541 -0.002831033 0.0019244647 0.0015478005 6.6746594e-05 -0.0029524523 -0.0006562501 3.2989243e-05 -0.0025753467 0.0008864695 0.00016299298 -0.002298043 -0.0028185225 0.0020065156 -0.0028366235 -0.0018620158 0.0019632154 -5.980843e-05 -0.000961652 -0.0017425502 -0.00037239984 0.0017962197 -0.002042841 -0.0016427722 -0.0016483181 -0.0016388701 -0.0026857136 -0.0032575736 0.002550845 0.0026725286 -0.0014528806 -0.0031160538 -0.0006207652 -0.0012718231 0.0030958988 0.000953738 -0.0019668802 -0.0010768481 -0.0032908972 0.00066331145 -0.0013549953 -0.00095963274 0.001762885 0.0025042356 0.0014929852 -0.0022678517 0.0021954197 -0.0033174371 -0.0023495043 -0.0027461846 -0.0007065288 0.0001851153 -0.0012576213 0.0005425501 0.003068459 0.0021844816 -0.00031143517 0.0030190754 0.0004979846 -0.00065900135 -0.00217699 0.0021497912 -0.0030464919 -0.0005774175 0.0024956749 -0.000821059 0.0005080912 -0.0024348556 0.0016903573 0.002387129 -0.003065325 -0.001141479 0.0026231138 0.0009778877 2.710131e-05 6.1137966e-05 -0.0032816161 0.0032679054 -0.0006454196 -0.0015896494 0.00093358726 0.00034220272 -0.0019265277 0.0019182437 -0.00084993884 -0.00205457 0.0024576504 0.0021926914 0.0028738768 0.00035457558 0.0001718055 -0.002674626 0.001604988 0.0030624005 -0.00026241172 -0.00059176463 -0.0011962334 -0.000117623706 -0.00260009 0.0019479595 0.00046897135 0.003062502 -0.0021441707 -0.00170925 -0.0020876345 -0.0024051599 0.0009743481 0.0016595548 0.0003827463 0.0011949276 -0.0031362425 -0.00032925032 -0.0025952163 0.0010298387 -0.0009128272 0.0029599236 -0.0011739413 0.0023076376 0.0013863902 0.00046338886 4.3476983e-05 0.0027609488 0.0008175361 0.0027679529 0.0011778915 0.0018506923 0.0017470215 -0.0025393835 -0.001884606 0.00039491736
delicious 6.4292864e-05 0.0007541819 0.00034891322 0.0025129917 -0.0014687122 3.6459052e-05 0.002404071 0.0008272974 0.0014301365 0.001426238 -0.00039149504 -0.002774957 0.0010068959 -0.0029277627 -0.00091547344 -0.0031416428 -0.000103486665 -0.0026118883 0.002434806 -0.0016752302 0.0033019558 -0.0030141112 -0.001462592 0.0006588415 -0.0010062768 0.00049036456 -0.001274286 -0.0002735748 -0.0019504378 -0.0033383544 0.0021635855 0.0001311423 0.0021993378 -0.0024675725 0.0012499518 -0.0032675965 0.0025818672 0.0019324974 -0.0020048234 0.0027386348 -0.0018744691 -0.0028869763 0.0005003846 0.0010110866 -0.0026682105 -0.0029348617 0.0030757 0.0005874629 0.00032030224 0.00083500077 -0.0011514928 0.00058044295 0.00065351656 0.0033271678 -0.0018721137 0.0007956762 0.002099315 -0.0021823095 -0.0029535405 0.0029099975 0.0023063058 -0.0013662395 0.0019456809 0.00028860636 -0.0016772739 -0.00039290145 -0.0016380918 0.0020556613 0.00062584155 -0.0027498205 -4.469778e-05 -0.0008453226 0.0022526712 -0.00043026966 0.002599621 0.00065406493 -0.0012804384 0.0027111017 0.0009871136 -0.0013091562 -0.0019048298 -0.0010295257 -0.0017520216 0.0012399912 -0.0030788057 -0.0019430842 0.0011356809 6.464868e-05 0.0020540315 -0.0011906293 2.7561904e-05 0.00080554147 0.0018573016 0.00056558795 0.0033120913 0.0012344143 -0.0023636834 -0.00047351312 -0.002808423 -0.0017700683 -0.0007278882 -0.0032027364 0.0031309975 0.0007136504 -0.00039939865 -0.0018977459 -0.0028443972 -0.0032797686 0.0029425423 -0.00082943775 0.0014837147 -0.0015251562 0.0033638491 0.0012263209 0.00032977248 -0.0013015929 0.00041264194 -0.0008911184 0.0025222697 0.001402358 0.0003234894 0.0011859697 0.0012362986 -0.0023034639 0.0029430888 0.0006230965 -0.0019702646 0.0028506096 -0.0003783378 0.0027721948 -0.0004802195 0.002363732 0.0009328287 -0.0015198238 -0.0012219027 0.0031048423 0.00052403146 -0.0020303014 9.164599e-05 -0.0007047125 0.0005391092 -0.0026156388 0.002399549 0.0004638717 0.0026172576 0.0014812055 -0.0015106379 0.0012210571 -0.00021042427 -0.0033077453 0.0027507425 0.0032033185 0.0032241323 -0.0012660444 -0.0028041573 0.0016720106 -0.0026003264 0.0028104146 0.00088759436 0.0019276895 0.0020196636 0.00017749323 -0.000732445 0.00031508872 0.0032871456 -0.0023834682 -0.0005409116 -0.00079321524 0.0016350573 0.0021752922 -0.001384711 0.0012130262 -0.0014904591 0.0010990215 0.00275495 0.001226171 -0.0015533153 -0.0010406942 0.002625707 0.003250062 0.0019354786 -0.0010350683 -0.000660807 -0.002103698 -0.0014786085 0.0011277086 -0.0020762803 -0.0021202392 0.0027624934 0.003135893 0.0027364807 0.00053001975 -0.0030066748 -0.0025055758 0.0005308066 -0.0032182215 -0.002490705 0.00065838615 -0.00094129203 -0.0030405016 0.0021276763 -0.0029896395 -0.002455151 -0.0006036659 0.00061548455 -0.00036174172 -0.0017267613 0.002241571 0.0029320228 -0.0024642623 0.003248165 0.002401751 -0.00245324 -0.00066014647 0.0014545731 0.0023536708 -0.0012635109 -0.0024103276 0.001565616 -0.0030731445 -0.0019156184 -0.00042687752 0.0018339542 -0.0019741755 0.0015851264 -0.0001689295 0.00093389745 0.002126853 0.00045745 0.0025727719 -8.5992746e-05 -0.0027672017 0.0030341297 -0.0015534168 0.0015112325 -0.0012656238 -0.0024481644 -0.0021661643 0.0015784216 -0.00027495663 0.00050248625 -0.003006684 -0.0017295085 -0.0020224128 0.0028127818 -0.0029499882 0.0016942022 -0.00033200276 8.02911e-05 0.0029495065 -0.0011788781 -0.0023256047 0.0003138959 0.0025663304 0.003024368 -0.0012410556 0.00096530846 0.0016747164 -0.0018032853 0.0022437056 -0.0021357564 0.00067078223 0.0015941381 0.0014126186 -0.0015945279 0.00088472455 0.0024934276 0.00291554 -0.00323797 0.001903459 0.0016216484 -0.00055952487 0.003046013 -0.0014122946 -0.00058302097 -0.0022733214 -0.0012147407 0.00010658887 -0.0011548534 -0.0017872074 0.0021920362 -0.0017539897 -0.002128317 0.0025833005 0.0032058528 0.0013156101 -2.3846482e-05 0.00028154522 -0.0003061056 0.002297551 -0.0020398153 0.00021175988 0.0014495985 -0.00066941895 0.00038219665 0.0012797714 0.0032651287 0.00071727956 0.0032041238 -0.0019542659
love 0.0015979095 -0.0011980488 -0.0014209155 0.00041593236 -0.0013819716 -0.0018920363 0.0010621365 0.0028123397 -0.0021819805 -0.0030341756 -0.0011008302 0.0025081157 -0.0032321815 0.0032196015 -0.00014699208 0.00076581194 -0.00060726685 -0.0019208088 0.0010281799 0.0020462857 -0.0023495008 -0.0003949026 0.0005102645 0.0014215234 0.0023794654 -0.0011759696 0.0024069792 -0.0018436618 -0.00074158644 0.003018273 0.00179832 -0.0028331277 -0.0005363709 -0.0029380322 -0.000544632 0.0018925716 -0.002453432 0.0018187031 0.0020346807 -0.0012532059 -0.0032352605 -0.000845288 -0.0008450665 0.0012438695 0.0029797014 0.0006709382 -0.0007047439 0.00099311 -0.002260316 -0.00042061871 -0.0004924148 0.0032074482 -0.0019404313 -0.0023305702 0.00079397723 0.00087573903 -0.0023791234 -0.001950675 -0.0003870429 -0.001091174 -0.002994888 -0.0013528751 -0.0009849424 0.0021630996 0.00031436948 0.0005436354 9.953245e-05 -0.0011145335 0.0010243584 0.00024806306 0.0020029559 -0.000251518 -0.0029567552 0.00028772117 0.0033203198 -0.0017531344 -0.00173439 -0.00083476986 0.002854343 -0.0002736003 0.0031275852 -0.0027745578 0.00300531 -0.003211477 0.0030706304 0.00062593963 0.0008903766 -0.0019556908 0.002827888 0.0020258327 -0.0018165126 -0.003171174 0.0023366367 -0.001840755 -0.0030909437 0.00086619647 -0.0016501644 -0.0024495274 0.0032393201 -0.0005179286 -0.00050576 -0.0013350147 -0.0014561024 -0.0015336613 -0.0018663856 -0.0017798812 -0.0026746062 0.003185507 0.0021110473 -0.0012098773 0.0008036553 -0.0025499028 0.002515771 0.002774408 0.00026637973 -0.0022635693 -0.0009773455 0.0015908625 -0.0009621997 0.0010389192 0.0031412481 0.0014623642 -0.0017291429 0.0018140441 -0.00096430874 -0.0021119448 0.0023273265 -0.0031040167 -0.00037276777 -0.00043973944 -0.002792946 -0.00036026692 0.0018718864 -0.0017804044 -0.0023340879 0.0020872662 -0.0011434888 -0.0026084643 8.703008e-05 -3.227534e-05 0.0025180478 0.00017517211 0.0026124504 -0.0032602577 0.0013419684 0.0020676327 0.00033248417 -0.00095813756 0.0003388623 -0.0002856067 -0.0027000855 -0.0022777533 0.00039307598 -0.0006677641 0.0031836017 -0.00029735177 0.0020235241 0.00067818834 0.002695524 -0.0030784248 0.0007942518 -0.00047077995 0.00071067736 -5.927448e-05 -0.0022081349 0.0030238666 -0.0009506175 0.0006349393 -0.002144991 0.0012591347 0.0033283639 -0.00039890813 0.0021950062 -4.3234653e-05 0.0026527995 0.003216929 -0.00013860376 -0.0005722745 -0.0031655645 0.0032992074 -0.00084456336 0.000745569 -0.0005802686 0.0027650148 0.0027662818 0.000511696 0.0009885454 0.0021580951 0.0007635943 0.0021336477 5.9848626e-05 -0.00075554044 0.0017466337 -0.0011281763 -0.0008709574 0.0029163775 -0.0030435664 -0.0011471538 -0.0009756478 0.0018950789 0.0026380098 -0.0021497365 0.0019377937 -8.2682156e-05 -0.0030004978 -0.00082231394 -0.00052017084 -0.0014800224 -0.00025535072 -0.0017448219 0.001976197 0.003081092 -0.0005235035 0.0011252599 -0.00024025563 -0.00023352295 -0.0023425284 0.00046795196 0.0012978349 0.0022870759 0.0021921839 0.0011806054 0.0015487794 -0.002503685 -0.0004709875 -0.0019331233 0.0022792835 0.0026053526 -0.0014294814 0.00038954866 0.0017151104 0.0005890054 0.0002534843 -0.002230992 0.003256537 -0.0024106258 -0.0020071461 -0.0018700801 -0.0021154147 -0.001175735 -0.003129189 0.00038881568 -0.0012489181 -0.0008493896 0.0019320388 0.0011687957 0.0006042369 -0.0004720677 0.0032921853 9.979054e-05 0.001682167 0.0030160658 -0.0032385609 -0.0030563409 0.0032886276 0.0009103423 -0.00060695875 0.0015831525 -0.0014664012 -0.0021413208 -0.0027584464 0.002394133 -0.0007960934 -0.0025272 -0.001983342 0.0020686856 -0.00079922314 -0.002039015 -0.0005491246 -0.00048037907 -0.0010829496 -0.0007044604 0.0013637143 0.0004812409 -0.0011644607 0.00091167353 0.0017580811 -0.0030516032 -0.0025464382 0.0021020211 -0.0029867627 0.00018092713 -0.0029967236 0.0027934827 -0.0014334529 -0.0022034575 -0.00046635087 -0.00036680652 0.0025104287 0.0030417799 -0.0001007208 0.0009050332 0.001581081 4.7715253e-05 -0.0019071837 -0.00018231398 0.0007371098 0.002773447 -0.0011895737 -0.0032859393
nice 0.0017991364 0.003307382 -0.002350792 -0.0002064714 -0.0016806689 0.0021099527 0.003261019 -5.2573498e-05 0.0017329978 0.0021767481 0.001504582 -0.002689812 0.0010098359 -0.0004661714 -0.0007403593 0.0017916053 -0.00040924267 0.003308177 -0.000226292 6.0774408e-05 -0.00077626284 -0.0028477593 -0.0033009534 0.0016638917 -0.0022219704 0.0010059793 0.00088593253 -0.0023335237 -0.0010763678 -0.001953433 -0.0028535621 -1.2543362e-06 0.0032904996 -0.0022002812 -0.0014390317 0.0028112852 0.0031185532 0.0032419544 -0.0032858117 0.0016868704 -0.0022195913 0.0022686229 0.002028639 -0.0011460396 0.0023053533 -0.0025947094 0.0015351136 0.0015264087 0.0019939546 0.0019867762 -0.00086752523 0.001294067 -0.0020234666 -0.0020995287 0.0009030129 -0.0031412612 -0.000109302906 0.00038558603 0.0026998552 -0.0023044404 -0.0007606278 -0.0013923923 -0.0017216037 -0.00014468525 0.0015287299 -0.0016417673 -0.000532668 0.0028905398 -0.00046491882 -0.00116918 0.0024867705 0.00042742354 -8.660352e-05 0.0031158568 0.0027444346 0.0011406586 0.0011149386 -0.00077686494 0.0026935106 0.0017035498 -0.0018429769 -0.0020455082 -0.00022581745 -0.0025734052 0.0011157499 -0.0030807585 -0.00049996434 0.0011138049 0.0010522825 0.0010575573 -0.0030031404 0.0011274582 0.0018210993 0.0011707959 0.002635842 0.00055506115 0.0021129025 0.0029533152 -0.00032192835 -0.00023929849 0.0007280522 -0.0024946344 0.001905977 -0.0016524374 -0.001099728 -0.0006736537 0.0027240294 0.0007615578 -0.00033606347 -0.0009654622 -0.00076359545 -0.0004411494 -0.0016863367 -0.0013636462 4.8611844e-05 0.0015512762 0.0006021233 0.0023066467 0.00026200726 -0.0011420172 -0.0024451553 0.0020277835 0.002333255 -0.0020442288 0.0015457341 0.003216737 -0.002149654 -0.0009748974 -0.003014708 0.001104056 -0.0011139953 0.0007037835 0.0031812452 -0.0028318334 -0.0030736984 0.0006017676 -0.0027038166 -0.0030247823 -0.0031420847 -0.0001357803 -0.00037072186 0.00021640265 -0.00047771746 0.0030380269 0.0029314673 -0.0021380244 0.0028678835 -0.0030375703 -0.00045805666 0.00083581556 -4.205668e-05 -0.0012894345 0.00015576895 0.0003408148 -0.0031256094 -0.0015838688 -0.0025976587 0.0012296035 -0.0003218231 -0.0024410607 0.0018547587 9.696013e-05 0.0008907156 0.0018448781 -0.0014062468 0.002622285 -0.0026275387 -0.0011249441 -0.0024377282 0.00035939747 -0.0024715613 0.0030358485 0.001853285 -0.0023919719 0.0021005997 0.002209773 -0.0024948488 0.0015228902 -0.002566634 0.0031415818 0.0015609465 -3.665978e-05 -0.00301061 -0.00029845166 -0.00010376427 0.00031679706 0.002942467 -0.0008589396 -0.002869455 -0.002980611 -0.0003236522 0.00047591963 -9.3304425e-06 -0.00071673654 0.002860578 -1.2375435e-06 0.0021446848 0.0013051648 -0.0023875393 -0.0006858091 -0.002602495 -0.0022445123 -0.001048023 0.0021924926 -0.0002474738 0.0029240546 -0.00074490154 -0.001742502 0.0013478395 0.0007189432 -9.8123055e-05 -0.0008581778 -0.0019976895 0.0013333103 -0.002517846 -0.0029726394 -0.0030686415 0.002749743 0.0013247008 0.0023193215 0.0033195869 -0.0023994448 0.001320318 0.0008849706 0.0020493206 -0.0011453071 0.0031449634 -0.0019560212 0.0023357924 0.002318408 -0.00011215922 0.001658939 0.0021893186 0.00055915106 0.0024071666 0.0008235067 -0.0005107031 0.0024810745 0.001581784 -0.0011001369 0.00057322194 -6.55813e-05 0.0016563315 -0.0018159244 -0.0013959457 -0.00034034316 0.0012889061 -0.0022191757 0.0026298556 -0.0010041327 0.0019268856 0.000954046 0.0023295349 -0.0015129873 -0.0010939969 0.0009988772 -0.0008792304 0.0020008294 -0.0020209716 0.00085422996 -0.0002306874 -0.0002201567 0.0008904168 -0.0007576327 -0.0014415602 -0.0028470298 0.0008726943 0.0018176148 -0.0019904182 0.003071213 0.0013500215 -0.0017574168 -0.00042535883 0.0012954789 -0.0023342238 0.0007103661 0.0018673267 0.0021138696 0.0017709435 0.0012250833 -0.0009282217 -0.0020157443 0.0027174635 -0.0024240871 -0.00053323637 -0.0010991985 0.0021531002 -0.00209324 0.0011316193 0.0006830186 -0.0013201361 -0.0027176742 -0.0026689554 0.0012059405 -0.003154583 0.0019292122 -0.00095995073 -0.0030495438 -0.0016956645 0.0025626663
awesome -0.0005815545 0.0021554194 -0.0030955647 -0.0030584494 -0.0017289302 0.00029098225 -0.0023672234 -0.003107188 -0.00294569 -0.0001567225 0.0024947545 -0.002802104 -0.001775244 0.00051931606 0.0010979861 -0.00283337 0.0026487624 -0.0027410057 0.0015716742 0.0031078628 0.0018974429 0.0020558133 0.002722234 0.0011570237 -0.0023797157 0.0019241198 -0.0027942182 -0.0018972802 0.0019460842 -0.0026699447 -0.0019533136 -0.0011867048 0.0011394887 0.0017514833 0.00069631654 0.0017216252 -0.00085238024 0.0014341734 -0.0023426304 -0.0005482943 -0.0025993322 5.2122574e-05 0.0015627057 0.0015847317 -0.0015390113 0.0005894255 0.0026258624 -0.0018401088 -0.0012556451 -0.00018233765 -0.0015795927 0.0029079632 0.0025109828 0.0031027931 0.0031270273 -0.0028129017 -0.00015428138 -0.0025219352 -0.0015941781 -0.0029316037 0.0011482383 2.5034962e-05 -0.0022966522 0.0026472488 0.00030682207 0.00012659443 -0.0011867476 -0.001104637 -0.000888365 0.002542947 0.0008007198 -0.0017060257 0.0016022713 0.00031689266 -0.00089872815 0.0025803784 -0.001319482 0.0024742663 -0.0014054681 -0.0024437653 -0.0015113062 -0.0012979101 -0.00024742147 -0.00057796197 0.0017116405 0.0018228474 -0.00057254726 0.0012425419 -0.00064825534 0.00025230835 -0.00044765545 -0.0008276674 -0.0015500264 -0.0014064171 6.9424525e-05 0.00055708905 -0.003135899 0.0020277281 -0.0005649458 -0.0009846443 -0.0016042034 -0.001417999 -0.0015807478 -0.0032619867 -0.00025936202 -0.0026209322 -0.0016112939 -0.002447671 0.0032949646 -0.0004543441 -0.0026112122 0.0018289906 -0.002685149 -0.0006267362 0.00092267094 -0.0023423517 -0.0029171624 -0.0022112806 0.0025142825 0.0029947367 0.0013306054 0.0008184739 0.0013849451 -0.0013690281 0.0032518238 0.0023175587 0.0013588704 0.002968461 -0.0027760155 0.00034741417 0.0029763249 -0.00030045595 -0.0022382776 -0.00079162145 -0.0009163022 -0.00081625336 -0.00061066396 0.0024278844 -0.000105766594 0.0013890913 -0.0012463824 0.0027228375 -0.0021893932 -0.0031075922 -0.0013827197 -0.002462703 -0.0016486351 0.00016149094 0.0007950058 0.00056583167 0.0016797117 -0.00047540347 0.0007572795 0.00012095341 0.0026109053 0.0027007707 -0.00067445653 0.00040739708 -0.0020154594 -0.0015556528 -0.0023351684 2.303908e-05 -0.0016539211 -0.0013334976 0.00050649315 0.00086202397 -0.0030458828 0.0005830878 0.0017179993 0.0014094595 -0.0009813393 0.0031690353 0.0031502983 -4.8736024e-06 0.0003091756 -0.0030750006 -0.0016075886 -5.0658036e-05 0.0013495939 7.883616e-05 -0.0029026058 0.0019521766 -0.0024882162 0.0028442913 0.001818718 -0.002262907 0.0009731905 0.0026089589 -0.0020125383 -0.0022000247 0.0030798393 0.00062366616 0.0032125644 -0.003297187 -0.0004917447 0.0022806888 -0.00047716318 -0.0005954283 -0.0023510025 -0.0018902903 -0.0021810413 0.0029830295 -0.00053634506 -0.0027773185 0.0027005519 -0.0009921155 -0.000435163 -0.00019485292 0.0009502129 -0.001573718 -8.322801e-05 -0.00096948346 0.0029296319 0.0022936664 0.00038214476 -0.0020163623 0.0010235693 0.00035181796 -0.002050372 -0.0019469856 -0.0010259461 0.0007990031 -0.0027050052 -0.0017002769 0.0026975058 -0.0012432932 0.0026772453 0.00016968301 -0.0018474974 -0.0016478541 -5.423234e-05 0.0015151829 -0.0020419483 -0.0018241251 -0.002303332 0.002254447 -0.0007967439 0.0013501892 -0.00053098623 -0.002495135 -0.00041831052 0.00012869251 0.0012066069 -0.0028920127 -0.0022695367 -0.002208324 0.0010120008 -0.0012657585 0.00034426767 0.0014021178 0.0015106109 0.00078460394 -0.00093681196 0.00021285717 -0.0018095694 -0.0021305778 0.0029262027 -0.0013399418 -0.0031355317 0.0012275332 0.0028242595 -7.178418e-05 0.0007795732 -0.0011991888 -0.0014093514 -0.0028695397 -0.0025893813 -0.003010431 -0.0020235244 0.002853505 0.0031418016 -0.0005647841 -6.1050823e-06 0.00260321 0.00042067873 -0.0016971586 0.0008834584 0.0006303669 -0.001264084 -0.0016353878 0.0032200126 0.0025446857 -0.0028668386 -0.0018386121 0.00047367893 0.00030974543 -0.0028020074 0.0031264985 -0.0017819382 0.0015450257 0.0030975314 0.00037527955 0.0014043628 -0.00090140797 -0.0032003557 0.00021645635 -0.00035280178 -0.0033145344 0.0023551793 -0.002467091
amazing 0.0016903192 -0.0014238452 -0.0030637127 -0.0030298359 0.0020679934 -0.0018297925 0.0018149632 -0.00043410686 0.0032559896 0.0023934925 0.0033422178 0.0027914515 -0.0026356403 -0.0031353675 -0.0018834188 -0.00029262237 0.0017089994 0.001215909 -0.00069869525 0.0016289515 -0.0011358719 -0.002267733 0.0015319992 -0.0032674938 0.00029672074 -0.0016785346 0.0024833148 -0.0012078455 0.00089322095 -0.0021465733 0.0032430165 -0.0018824146 0.0012209018 0.0011280897 0.0030102772 -0.0018235282 -0.001396245 -0.002142845 0.0020886722 -0.0015250854 0.0015760204 -0.00033559106 0.002422789 -0.002048028 5.9488843e-07 2.332892e-05 -0.0028294183 0.002943903 -0.0006716615 0.002156035 5.5417167e-05 0.0016974027 0.0007409055 0.0030334727 -0.0027654201 0.0028568448 0.0029103076 0.000397959 0.0014947202 0.0013234916 0.0013725407 -0.0010022453 0.000957793 0.00027029673 0.0015863646 0.002869535 -0.002586108 5.9954953e-05 -0.0029380282 -0.0004965395 -0.0030164935 0.0010863865 -0.00047478412 -0.00027804123 0.0021912311 -0.0026970701 0.00038193885 -0.00079837727 -0.0012562762 -0.002428254 -0.002686219 0.0027739047 -0.0025159318 0.001717127 -0.0012534918 -0.00037697412 0.0009436308 -0.0028742775 -0.0018115502 -0.0025566255 -0.003100108 -0.0016136478 -0.0010350575 0.0001754229 -0.00019718299 -0.0026306082 -0.0012299551 -0.00090631767 -0.002141416 -0.0021126322 -0.00086327177 -0.0026080674 -0.0027205937 -0.0025004402 0.0011951615 -0.0025813677 -0.001248539 0.0022405526 0.0024286502 -0.0021241677 0.0021935115 -0.0026077847 8.0057005e-05 0.002236073 -0.0009617587 0.0031157674 -0.000121734985 0.0015725008 0.0023858338 -0.002936182 -0.0020121299 -0.0023983726 -0.00041086244 -0.0023971978 4.7783315e-06 -0.0026429272 0.00014677846 -0.00018805149 0.0022070066 -0.002904519 -0.0010252154 0.0020078174 0.003085302 -0.0006763064 0.00030499056 -0.0019726362 0.00028246612 -0.002741889 -0.002579071 0.0003917534 -2.9188148e-05 0.0017957564 -0.003316358 0.0005736775 0.0005113442 -0.001748859 -4.524027e-05 0.001993171 -0.0021912516 7.270328e-05 0.0013128758 0.00053428276 0.0009524353 0.0027333277 0.0022551797 0.0012508766 0.0026030021 -0.0025903364 0.002470107 0.0013713579 -0.0019880997 -0.001358417 0.0020972998 0.002001163 -0.0032801027 0.00039667505 -0.00015728407 0.0002799445 0.002377816 -0.0023384525 0.0032149383 -0.003152047 0.00208427 0.0031651207 -0.0012332565 -0.0031381669 0.0020336264 -0.0030479603 -0.002753655 -0.00022836868 -0.0022043511 0.00296837 0.00256064 0.00024018061 0.0026085922 0.0032818823 0.0018232255 0.0015257117 0.0018596442 0.0021025392 0.001603955 0.002168058 -0.0025502702 0.0029809247 0.002766064 0.0030770518 -0.003040755 -0.0011748343 -9.6124255e-05 0.0013976686 -0.0027645982 5.2610758e-05 0.0020205262 0.0031534603 -0.00090128544 0.00058177416 0.0021265375 -0.00060265954 0.0006705301 -0.0030989621 0.00020267819 0.0014569445 0.0015376712 -0.003254561 -0.0016698872 0.0009888911 0.0004856121 -0.0016632809 0.001938189 0.0010980874 -0.0025631648 0.003293088 -0.0025951008 -0.001116225 0.003240492 0.00035576735 -0.0018138612 0.00035708616 -0.0013843513 -0.0022512716 -0.0025568565 0.001584821 -0.0030544754 0.0014162326 -0.0019153813 0.0018444099 -0.0014622951 -0.0018330689 0.002146834 -0.0029473875 0.0004708845 -0.000748583 -0.0022253285 -0.0025579093 0.0022670433 -0.0015452328 0.0015379454 -0.0032741912 0.00063552766 -0.0006171555 -0.0019565509 -0.0009245268 -0.0028206941 -0.0011772701 -0.0008672635 -0.0007665473 -0.0016397239 -0.0030506495 0.0017163312 -0.00047111692 0.0020712898 0.0009977014 0.0029097893 -0.00123568 -0.0030037973 0.00044368408 -0.002915663 0.0020612518 0.0027642264 0.00021168834 0.0025604814 0.0028160946 0.001382538 0.001782822 0.0030491862 0.000410083 -0.0026954585 -0.0027442302 -0.0006816833 -0.00018337517 0.0029431963 -0.0030772348 -0.00088550954 0.0030731743 -0.0004900326 -0.0030280328 0.0006459402 -0.0019048888 -0.0018068278 -0.002109563 9.695149e-05 0.0024535945 0.001401759 0.0027402714 0.0030277218 0.0015635011 -0.0019736846 0.002368383 -0.0031349221 -0.0016281983
chicken 0.0026672485 0.0026707242 -0.0018080573 -0.002647905 0.002692995 -0.0013444122 -0.0013064027 0.0024723266 0.0018089673 0.001277814 -0.00038295359 0.0028955652 0.0028088028 0.0023856938 0.003012396 -0.0019471283 0.00037416536 -0.0005446673 0.002094391 0.0032249517 0.0017271783 0.0013577275 0.0021631697 0.0019747869 3.356107e-05 -0.002774793 -0.00077170454 0.0030695712 -0.001737876 0.00028788383 0.0016767641 -0.002331206 0.0027574678 0.0005295287 0.0008365883 0.0028011291 0.0005364548 0.0002569107 -0.0031213616 0.0032848225 -0.0033063698 0.0028011356 0.0016877543 -4.1159918e-05 -0.002601737 0.0031627472 -0.00045845093 0.0018066115 -0.0009839777 -0.0016357647 6.452334e-05 -0.0026621057 -0.002216226 -0.0030890428 0.0017854285 0.00017940708 -0.00029168205 0.0017362301 -0.00063696015 -0.002426665 0.0009799675 -0.00201158 0.00019584199 0.003189319 -0.00032970277 0.0021060987 0.0014993561 -0.0011576768 -0.0017717557 0.002986363 0.0006976521 -0.00012878251 0.0003376772 -0.0016789603 0.0012331797 -0.0010342579 0.0013913059 -0.0014965521 -0.000261469 0.0012930016 -0.0024290767 -0.00083163363 -0.0029441472 0.000622208 0.00068718876 0.00081390474 0.00038846798 3.2320604e-05 0.0008121203 -0.00031784837 0.0020074293 -0.0010000288 -0.0016726244 -0.0017638827 -0.003199295 -0.0026943374 0.00073022954 0.0013225997 -0.0019471452 -0.0032079313 -0.0020459837 0.0015899754 -0.002994921 0.0017316071 0.0021192413 0.002000021 -0.002545207 0.0009672642 -0.0018662768 0.0030193648 -0.0014994056 -0.00080141844 0.0017850451 -0.00026728914 0.0016814419 -0.0013736917 0.0016660631 -0.003279186 0.0020874164 -0.00050667825 -0.0018509425 2.7038224e-05 -0.00042524928 -0.00026909754 -0.0006212347 -0.00305001 -0.0026340892 -0.002309908 -0.0028407366 -0.0014766012 0.0030957314 -0.0005679817 -0.0025090505 -0.0020380444 0.0012465739 -0.00085939263 -0.0005275279 -0.0014470941 0.0019582836 -0.0026713635 -0.0024939934 0.0024614516 -0.0023901507 0.0007491708 0.00010793273 0.0032265554 0.001348455 0.00066991017 0.0009246366 0.0007581817 0.00073573645 -0.00093194353 0.0013714998 0.0020325508 0.0030021018 -0.00016889986 -0.00046340207 0.0021199544 -0.0028373122 -0.00015437779 -0.0022412492 0.0016179108 -0.0030211762 0.0011309752 0.0030140243 -0.00069586467 -0.0029702892 -0.0027225993 0.0011028304 -0.0017483194 0.002142459 -0.00038402612 0.0026311458 -0.00016745781 -0.0020523085 -0.0019033011 0.00023738945 -0.0016352842 0.0022041097 -0.0011317441 -0.0018885097 0.00036355303 -0.0016721431 -0.0027673906 -0.0017969391 -0.0006237373 0.00022756404 0.0012851896 0.0023452002 0.0022078902 0.001989706 0.00012515907 -0.0020173006 0.0030296217 -0.00021928689 0.0015161447 -0.00050429406 0.0019032217 0.001801178 -0.0024208247 -0.0009190504 3.499613e-05 0.0006856685 -0.0031328057 0.0016650724 0.0010934707 -5.1071394e-05 -0.0011031884 -0.0025231182 0.0025379122 -0.0028957594 -0.002531489 0.0015203705 -0.0028536022 -0.0010579885 -0.0006976689 -0.00067556225 -0.0023697796 0.0014258787 0.0002611926 0.0012454822 -0.00042362174 0.0023096355 -0.003257333 0.0019475698 -0.0017361396 0.000599081 -0.0023327486 -0.00084319845 -0.0021518236 -0.0010940484 0.0032312141 0.0008679843 0.0005881784 -0.0020965696 0.0018940548 -0.0027053903 -0.0007541502 -0.0021198601 -0.0021869903 0.00078891875 -0.0011427584 0.00080501393 0.0013127219 -0.002082317 -0.00064212776 -0.00091649406 -0.003310229 -0.0032717118 0.00040147803 0.0014747864 7.643139e-05 -0.0015710378 0.0011943313 0.00054011936 -0.003156791 0.0024712114 0.002614916 -0.0026189787 -0.0003001241 0.002025891 -0.0009464521 -6.8219786e-05 -0.0014535298 0.002016186 0.0023520007 0.00076383713 -0.0015315794 -0.00066317176 -0.0013102997 -0.0032862776 0.0025763654 -0.00021839702 -0.00020502825 0.0023648753 -0.0029904575 0.002154463 -0.0025044563 -0.001864075 0.0017174623 -0.0011573979 -0.0011350237 -0.0021272195 -0.0012648359 -0.0008879006 -0.0013707367 0.0031326155 0.003174027 -0.00013242083 -7.1139606e-05 -0.0018387669 0.0026946696 -0.0016214498 0.0019970385 0.0031363708 0.0019777035 -0.00028467245 0.0018395735 0.002354298 -0.0013301804
cheese 0.0002273616 0.002179284 0.001963019 -5.1861083e-05 0.0008035354 -0.002205792 -0.0031034495 -0.0016174867 -0.0018045945 0.00019223285 -0.001308906 -0.0001327286 0.0025321578 0.0032800834 0.002615539 0.0007990725 -0.0008821825 0.0008056482 -0.0009166166 -0.0030033696 0.0022808309 -0.002875634 0.001262239 -0.0013117155 -0.0018549848 -0.00033520762 -0.002211757 0.0028848888 -0.0023088567 -0.003005313 0.0019529432 0.0014912661 0.001587194 0.00082099484 -0.0012298073 -0.001688403 0.0006162877 0.0027610555 -0.0018644681 -0.00080264 0.0006162236 0.002219952 -0.0021293669 -0.0015298871 -0.00087125076 0.00046204677 0.0017910156 0.0018557378 -0.0028900956 0.0024118894 -0.0008235944 -0.00095024414 -0.0029556088 -0.0018886889 0.0031575698 0.0010399084 -0.0026854705 0.0009637708 -0.002350858 -0.0030096758 0.0013008153 0.00067442306 0.00043837397 0.002962702 0.0020852531 -0.0016684434 0.0009325609 0.0008576255 0.0007855307 0.0027985068 -0.0022877792 -0.0007552122 0.00034759924 0.0021016884 -0.00019395654 0.0026492036 -0.0015453937 -0.003007564 -0.0023572128 -0.0013834379 0.0031757737 -0.001706916 -0.0016272063 0.0027813863 -0.0024780473 0.00066421943 0.0019186577 -0.002504314 -5.6483266e-05 -0.00077251374 0.0018816156 -0.0015279519 -0.0021876155 0.0033042433 -0.0015335559 0.0025250847 -0.0028022572 0.0023420006 -0.0011313878 -0.0025802217 -0.00038362623 -0.0007702114 -0.0005933501 -0.00036435478 -0.0021824532 -0.0012030384 -0.0010638564 0.002575045 0.0019244169 -0.0003069399 -0.0016381266 0.0017527934 -0.0029244323 0.0005420326 0.0013239472 -0.00062061293 -0.0015079707 -0.002754647 -0.0027348106 0.0023164905 0.0012021321 -0.00010316721 0.0032236716 -0.0028631862 0.00016856306 -0.00011949417 -0.002702099 -0.0030620391 0.0024146852 -0.0011911404 -0.0026079686 0.0026608258 -0.0020679794 -0.0010731174 0.00060894666 -0.0010867646 -0.0026530754 -0.0013348842 -0.003034172 0.000436502 -0.0015460781 -4.3807762e-05 0.0008735457 -0.00077952736 0.0029246823 0.0023423387 -0.00021532005 -0.00022737104 0.00027664803 0.002245406 0.002991358 -0.00066783506 -0.000525422 -0.0009900935 0.00017728293 -0.002109571 -0.0006524648 -0.002895771 0.00020852606 0.00049891084 0.00123235 -0.00095234584 0.0019574622 -0.0023301328 0.0032856504 0.00017290513 0.00074868934 0.0014557189 0.00014813353 0.000889787 0.0005356353 -0.0031963699 -0.0010431865 -0.00085994654 -0.0030757973 0.0011501268 0.0015887037 -0.00070471404 0.002486133 -0.00038603705 -9.9822355e-05 0.001956218 -0.0028456491 -0.0023144335 0.0024152724 -0.0021881508 0.0028669066 0.0018192271 -0.0026600831 0.002773758 0.0021139777 -0.002225081 -0.0028620523 -0.0029315318 0.0012757909 0.0020763234 -0.00072673947 0.0004312214 -0.0027718837 -0.001699622 0.0015613888 -0.0030221117 -0.0030663356 0.0003089032 -0.0028449723 -0.002330466 0.0015842079 0.002693031 -0.0024560548 0.0027181455 0.0031050753 0.0015282731 -0.0014570568 0.0032167772 -0.0025450808 -0.0012920344 0.00062495325 -0.0025951278 -0.0032921631 0.00092455867 0.002749062 -0.0017066813 -0.0014214059 0.0012767469 0.00022179457 -0.0028573629 0.002203556 -0.0010447992 0.0011813605 0.0010471442 0.0029721782 0.0028982651 0.002420449 -0.00272932 0.00037363757 -0.00031153797 0.0003035227 0.0029806872 0.0015907993 -0.0029916584 0.0032762825 -0.000321506 0.00012685556 0.0016567125 -0.0020696046 -0.00015560267 0.00046340295 0.0023438735 0.0014246161 -0.00062340713 -0.0028130598 -0.0012935061 0.002974094 -0.0031761953 0.003265507 -4.828518e-05 -0.000338191 0.003221303 0.003169648 0.00273428 0.0030098872 -0.0033437426 0.0025273045 -0.0031444316 -0.0025909597 -0.0029271683 0.0007681947 0.0024298322 -0.0021265775 -0.00088372757 -0.00080029777 -0.0015123774 -0.00043730307 0.0016143977 0.0012292109 -0.001058882 -0.0012157045 -0.00076688715 -0.0011061139 0.0013320408 0.0032444948 0.0026404185 -0.0025270875 -0.002126529 -0.003048621 -0.0019735075 0.0012029604 -0.0020023214 0.0005724149 0.0029836579 0.001139884 0.00041784937 0.0029874593 0.0021600844 -0.00042924803 -0.0020430542 -0.00033137095 0.0024206133 0.0025112971 -0.0013648624
order 0.0033053663 0.0008175805 0.0017131793 -0.0018994209 0.0014729489 5.082836e-05 -0.0031723208 0.0017453182 -0.0029899066 -0.0021643306 0.00094410277 0.0030916212 -0.00071888225 0.0023617505 0.0016839104 0.0013455496 -0.0020314166 0.0016884089 -0.0027812761 -0.0014648839 0.0018057772 -0.0027183946 0.0018863531 -0.00116379 1.4580735e-05 -0.0024497514 -0.002108104 -0.0010794766 0.002829975 0.0017616643 -0.0032195402 -0.0021871368 0.0011556438 -0.002812968 0.0022192432 0.002074136 -0.0030790945 0.0028472801 0.0026314682 -0.0005976748 0.000587028 -0.0019148333 0.0020708472 0.0025477584 0.0013781646 -0.0029310742 0.001659043 -0.001009314 -0.000720344 0.0020439923 0.00063291594 0.0015426797 -0.0020984677 0.0017883107 -0.0011738474 -0.00010829907 0.0020740682 0.0013863271 0.0025174238 -0.0012796675 0.0011934524 0.0024347997 -0.0010818931 0.0019221414 -0.0031542694 0.0029887538 0.0012611721 0.0017764679 0.0015295325 0.0015349711 -0.0010926073 -0.002048462 -0.0007429873 0.00042922364 -0.0009564063 -0.0028251747 -0.002090621 0.002779744 0.0030983328 0.0019924114 -0.0013846982 0.0002413842 -0.0028736873 0.0022867457 0.0001669688 0.0024677063 -0.0017765469 -0.000954501 0.0009925502 0.0011603612 -0.0021560865 -0.0024776894 0.0006902768 -0.0029914575 0.001941249 0.0018213093 -0.0012369157 -0.0018701759 -0.002775265 -0.00059710053 0.0023318594 -4.322259e-05 -0.0026295513 0.0029738382 -0.0028520082 0.001813847 0.00215396 0.00034710555 -0.0029390696 0.0020606285 -0.002652671 -0.0016722102 0.0032101902 -0.0027650297 -0.002550667 -0.0016069437 0.0011600838 0.00064028025 -0.0018293328 -0.0011575732 0.0028672977 0.0032747176 0.0032945937 0.00032984087 0.0013191102 0.00049574353 0.00054147444 0.0015690238 0.0007672598 0.00013863998 -0.0010147044 -0.0021534767 0.0026771515 -0.002046259 0.0009649212 -0.00027791195 -0.0012282467 -0.0016485138 0.0010424171 -0.0020012497 -0.002515397 -0.0009065295 0.0015199241 0.0020358737 -0.00049766427 0.002423629 -0.0025613862 -0.0015949013 -0.0026265406 -0.0020217753 0.0024243381 -0.0031312706 -0.002892637 -0.0032603303 0.003079724 -0.0008476436 0.00029881124 -0.0020644474 -0.00085426826 6.912126e-05 -0.0008458785 -0.0024388 -0.0020831486 0.00088719605 -0.0031600215 0.00038177145 -0.00066690735 0.0027674516 -0.00011991572 0.0020998097 -0.0023771646 -0.0025226749 0.0018581147 0.0003134873 -0.0016698235 -0.00088320347 0.0029097712 -0.0030749594 -0.0012341214 0.00035851612 -6.664864e-05 0.0032056407 -0.00067215407 -0.0023834042 -0.002587162 -0.003293456 -0.0025517934 -0.0019503247 -0.0019615104 -0.0005053248 -0.00016758425 -0.0015407094 0.00068015105 0.001309243 0.003015633 -0.0015953054 0.0017089115 0.0023970876 -0.0012392666 -0.00246107 -0.0011178257 -0.0022937795 0.0021778587 0.0031018953 0.0027807674 -0.002868172 0.0017055306 0.0017337583 0.0018951034 -0.0027707024 -8.389992e-06 -0.0023252876 -0.0029544856 0.000817957 0.0033291306 0.0021698296 -0.0023799725 0.00072323653 -0.0013075476 0.0032748408 -0.0029030207 0.003249893 -0.0021901757 -0.0023747156 0.00052705477 -0.00024068475 -0.0028153758 -0.0002116656 -0.00011757103 -0.0020940842 0.0019296516 0.0010406072 0.0027806154 0.002506151 -0.0022658342 0.0016129947 0.0019150709 0.0019520746 0.0017506314 -0.001628173 0.0014605982 0.00041222665 3.0669577e-05 -0.002139389 0.0005197935 0.0017343771 -0.0030672927 0.002841365 0.0009943245 1.9495174e-06 -0.0011234774 0.00012432331 0.002074023 0.001569444 -0.0020064588 0.0026185648 -0.00016437424 -0.0027142162 0.002921316 0.0016653757 0.001218458 0.002617931 -0.0024681294 -0.0019690208 -0.000682424 -0.0013530962 -0.00048290315 -0.00016998377 -0.0028262008 0.00063927827 0.0008328121 -0.00029325718 0.0016205291 0.0004755491 0.0019944268 -0.00071672286 0.002874901 -0.0005028544 0.0009823494 -0.0012522024 0.0020373785 0.0010432538 0.0001891835 0.0029332214 -0.002613706 0.0032473232 0.0002487108 -0.00076181657 -0.0013662606 -0.0030381458 -0.0007158675 0.0009184799 0.0022102676 0.0030441643 -0.002868264 0.0030398741 -0.002930548 0.0012510652 0.0026901355 -0.00084438914
go -0.0026225767 -0.0027734141 0.00038960378 -0.0002664754 -0.0031703734 0.0010064597 0.0007779906 0.0015188601 0.0014893186 0.0010761981 -0.003258233 0.0019084255 0.0014024177 -0.0025717225 -0.0007183979 0.00011432339 -0.00019867661 -0.00031621105 -0.0018524742 -9.663921e-06 0.0014662958 -0.0002258157 0.0002578236 0.00069858605 -0.0013214673 -0.002626921 0.003042549 -0.0032501004 -0.00084709085 -0.00044728888 -0.0025459877 0.0005924565 0.0026655295 -0.00048501874 0.0027077075 0.00010686804 -0.0019097284 -0.00068816927 -0.00022109333 0.002076236 0.0023753482 0.002049235 -0.0019990124 -0.0023411624 0.0020444228 0.00084632175 0.0017806952 0.0001716446 0.0026255522 -0.0029576991 0.0033068925 -0.0027502677 -0.00056637416 0.0021222462 -0.0030752209 0.001462849 -0.0023135245 -0.002262579 0.0007788339 0.0006000345 -0.0009264063 0.0026177596 -0.002331249 0.00015437773 0.002905744 0.000704089 -0.0022928407 0.0011891896 -0.0016875187 0.000200045 0.00095081417 0.0025470813 0.0024836028 -0.0016528865 0.0031988805 -0.001832059 0.0025467193 -0.0026662936 -0.0026136788 -0.0003694722 -0.0027235483 -0.0011426616 -0.00018469889 5.338723e-05 -0.0033193545 -0.0021652952 -0.0024663906 -0.00013150937 0.0017478317 -2.2996892e-05 0.0033369632 -0.0013077877 0.0026870936 0.0020338108 0.0027659286 3.379632e-05 -0.00012371955 0.0006300175 -0.003311016 0.0030327637 -0.0007937818 0.0025256316 0.0006888852 0.00097635324 -0.0004167306 -0.003323474 0.00046324343 0.00097278605 -0.003283886 -0.0012972616 -0.0007969183 -0.0016957095 0.0013235467 0.0007013848 0.0014368022 -0.0021447695 -0.0019940897 0.0015768849 0.0022777223 0.0017917084 0.0016057624 -0.0024122896 0.0027186233 -0.0023300792 -0.0025703185 0.0028512585 -0.0008435884 -0.003156314 -0.0010042455 0.0020145623 -0.0009509448 0.00166277 4.5769575e-05 0.0013213978 0.00041506568 -0.0030972837 -0.0012182929 0.0029378799 0.00049753033 -0.0019832985 0.0023285353 0.0024582471 0.0023851686 2.530696e-05 -0.0030464544 -0.0011669992 0.0016925479 -0.0021784878 0.0032589063 -0.0032519512 -0.0027086856 -0.0017865743 0.0020081904 -0.0025536902 0.0028869188 -0.0032582672 0.001150735 0.0010828496 8.2727765e-06 0.0032211232 0.0016949971 0.000108914835 0.0016005631 0.0021655152 0.0009973658 0.0031296795 -0.00044960607 -0.0027864233 -0.001481551 -0.00048090998 -0.0024157972 -0.0005252853 0.0026499522 -0.0016720108 0.0017102187 0.001446911 -0.000242653 0.00033554033 0.0019018031 -0.0022077644 0.0013020295 0.0029907816 -0.0011931093 -0.0025525577 -0.003082142 -0.0029915983 0.0013294118 0.0017437469 0.0023680255 -0.0005036257 0.0003271314 0.0010359626 -0.0033150706 -0.003126071 0.0015300121 -0.002815251 -0.0010691789 -0.0014464108 0.0019785846 -0.0011437611 0.0033195796 0.00018739101 -0.0017142387 -0.0012241451 0.00043552343 -0.0018002982 0.002479226 0.0030301888 0.0014402249 -0.0024540199 -0.0019960457 -1.4853813e-05 -0.00032277312 -0.001856605 0.0026665847 0.0020825106 -0.0014104671 0.0007536748 0.0017056279 0.00077332463 0.0028719013 -0.00042634504 -0.0021875447 -0.00030612698 -0.002783166 0.0032720566 -0.0028581002 -0.00050628633 -0.00094908767 0.0010459184 0.0016615185 -0.0027472777 -0.0014803939 0.00019504683 0.0012982949 0.0017185226 -0.00045884377 -0.00019729338 -0.002589251 0.001491263 -0.0025390284 0.0010772948 -0.0011465894 -0.0025981304 0.0023140474 -0.00015935765 -0.0031812591 -0.0031537982 0.00019359047 -0.0027234175 0.0012406971 0.0011633418 0.0011423097 -0.0018869053 0.0026640724 -0.0030017903 0.0025044715 -0.00020986436 -0.00050497835 0.0013096125 -0.00081880554 -0.001478398 -0.00077735743 -0.0020807781 -0.00013373389 -0.0017934145 0.001560153 -0.0031535437 -0.001469138 -0.0030485021 -0.0032211072 -0.00026157123 -0.0026921304 -0.0019023882 0.0009244974 -0.00047281387 0.0010583991 0.0027542035 -0.0032367816 0.0020418027 -0.0026441375 0.002183821 0.0024889165 0.00287558 -0.0026418583 0.001112102 -0.0026205026 -0.0004077645 -0.0017255826 -0.0028585496 0.0016572493 0.0015001483 -0.0013277853 -0.0025787838 0.0012273861 -0.0012885774 -0.0029396624 -0.0014558481 -0.0007155338 0.0029178031
ever -0.002150757 0.0024526902 0.0020516163 -0.0016375198 -0.00057876523 -0.00087222963 0.0010670626 -0.000112025606 -0.00091459655 -0.0030100765 0.0021577813 -0.0032070663 -0.0028928407 0.00048779056 0.0009841848 -1.1941908e-05 0.00014660934 0.0008642989 0.00057666266 0.0024966674 -0.0011505969 -0.0024147981 -0.0026459494 0.0026528933 0.0006407091 -0.0019298189 0.0021040284 0.002836707 0.0026286806 -0.0023037568 -0.0016834306 -0.00066711137 -0.0021975727 0.0015841748 0.0019041069 -0.0019911178 0.0024325608 -0.002579683 0.002091926 -0.0015357693 0.0006497533 -0.0011205144 0.0011327285 0.002546315 -0.00045195452 -0.0016506047 -0.0028390065 0.0012332464 0.0014280083 0.0022286884 -0.0014162157 -0.0032415998 0.0022677018 -0.0014811489 0.0014717431 0.0027056453 -0.0012980452 0.0005754138 -0.0011773208 -0.002180834 -0.0018775137 -6.253347e-05 -0.002485132 -0.0006498475 -0.000838635 0.0022724443 0.00045874692 0.0019655817 0.0012572648 -0.0011539656 -0.0016931493 0.0032294155 0.0023786118 -0.003040618 0.0017829832 0.0027298117 0.0030614918 -0.0026814414 -0.0006727953 0.00036292907 0.00094909547 -0.00054583774 -0.0015953904 0.0022200185 0.0023173506 -0.00012182552 -0.0019364003 -0.0014637564 -0.00167551 0.0014217473 0.00019205747 -0.0007999857 -0.0030105272 -0.00049627037 0.0021546367 0.0021112843 0.0014187733 -0.00095278065 0.0030068364 0.00021191982 0.000380884 0.0020755464 -0.0021772464 0.002199485 0.0032500296 0.0011992047 0.0011356489 0.0014002121 -0.0006676864 -0.0026900664 0.00045578787 0.0002947534 -0.0022382133 0.00065889966 0.0018022776 -0.0023705591 0.0008334169 0.0025822404 -0.0028369175 0.0011073784 -0.0028553265 -0.002617281 0.0023633507 -0.0025354123 -0.0004678707 -0.0026190924 -0.0026473748 -0.0023888727 0.00016463426 0.0006214569 -0.0026180912 -0.00265718 -0.0010357193 -0.00065540767 -0.0020381857 -0.001382666 0.0012053876 0.0010071591 0.002174734 0.0013789826 -0.00029966555 0.0008896767 0.0029775968 0.0006484342 0.0006021204 0.00036906463 -0.0031259574 0.0017727605 0.0016858737 8.6777334e-07 0.0030671253 -0.001913319 0.0010792157 -0.002605057 -0.002971063 0.0007072536 0.0015466145 0.0020011454 -0.002904049 0.0014905632 0.0007991712 0.0013927952 -0.00023827562 0.0018880541 0.0024389662 -0.0028074367 -0.0033174874 0.0023411007 -0.0003128044 -0.0031006385 -0.0013700924 0.00040370584 0.0028113937 -0.0005597438 -0.00032376143 -0.002450682 -0.0025551638 0.00046517825 -0.00015119134 -0.002534234 0.00030217326 -0.0029700676 -0.00084944954 0.0013923631 0.0003429109 0.0026042117 0.0022396396 -0.00035033448 0.0016697583 0.0020253167 0.002926101 0.0030441538 0.0016020443 0.0015497089 0.0024046304 -0.0005549572 -0.0019002231 0.0029551112 0.00041254188 -0.0016704657 -0.0002932086 -0.0017499742 0.0030377922 0.0011156489 0.0014551119 0.0021456438 0.0027315323 -0.0015557226 -0.0021118487 -0.0012380023 -0.0012486657 -0.0031802682 -0.0001887176 -0.0027080828 0.0032742743 -0.0011222777 -0.002126882 -0.0027577283 -0.0011831438 -0.0032164205 0.00029085495 0.0018206193 -0.0009522334 0.0025182713 -0.00062555383 -0.0024357557 -0.0010263579 -0.0010514226 -0.0023642606 -0.003226441 -0.0013465737 -0.000529744 0.0016486717 -0.002504702 -0.0016827041 0.00046619252 -0.00056215865 0.0011871462 -0.00060417067 0.0014102285 0.002686269 -0.0026625362 0.0012512056 0.00200209 -0.00017928946 0.0022302968 -0.0018048004 -0.0015402503 -0.002602951 0.0031764973 -0.0031326986 -0.0010807569 -0.00010755158 -0.0016271863 0.0031498792 -0.00227806 -0.002638396 0.0031031244 -0.0027889886 0.003212128 -0.0013605924 0.001876024 -0.00011284661 -0.0013575017 -0.0025200588 -0.0020930073 0.0023230906 0.002140869 2.5454025e-05 0.0021572742 0.0012653071 0.0012443864 0.0008843553 -0.0032485153 0.003083593 -0.0027253004 -0.0009666417 0.0004888715 0.0017120771 -0.0030503138 0.00055841723 0.002129793 -0.0029257338 0.0032077536 -0.0017465608 0.0031762621 -0.0021796993 0.0022163405 0.0031257686 -0.0030697996 0.00012541923 -0.0025561468 0.0027244468 0.0032217551 -0.001969688 0.00030896856 -0.0007189198 -0.0025808043 0.00028897496 -0.0033108955
time 0.00085997523 -0.0025191645 0.0018929687 0.0025183267 -0.00085971726 -0.0013922134 -0.0031405538 0.0017057373 0.0009599235 0.0029079106 0.0011278427 -0.0009730008 0.0011689038 0.0029094915 0.0030626995 0.0025264926 -0.0028088924 -0.0025147202 0.0023914066 -0.0025256418 0.0010810297 0.0026712012 -0.0010894951 0.0022529063 -0.0027276305 0.0021656672 0.0018075806 0.0011215619 -0.0027456624 0.0029890228 0.002769535 -0.0005198592 0.0013884538 0.002147267 -0.00056643673 0.0018543613 -0.0013130008 -0.0004513015 -0.0003830595 -0.0013895733 -0.00025078937 -0.0026037563 0.0012224234 0.002994311 0.0016308995 0.002166511 -0.0015706299 0.001635351 -0.0021977283 -0.0016387872 0.0032817447 0.0021472364 -0.0016514024 -0.0019590897 0.0024153166 0.0009288464 0.002203084 -0.0022182288 -0.00030997346 -0.00028601667 -5.7598652e-05 0.0007246061 -0.0022284014 0.0014683915 -0.00092901825 0.0028186531 -0.00035222666 0.0030701295 -0.00029207498 0.0017582066 -0.0025321713 -0.0030090096 -7.539262e-05 -0.0007826637 0.0033552516 0.0015200833 -0.0018572283 0.0024710365 0.00019872605 -0.0031778675 0.0018832645 -0.0006688376 -0.003163871 0.0029796807 0.0024338162 0.0028531305 0.00014628265 0.0025594148 0.0017834272 -0.002294656 0.003112074 -0.0012022015 -0.003221418 0.0028636674 -0.0017338578 0.002812189 -0.0025808604 0.0030746877 -0.0019908366 0.0013491145 0.003275688 0.0014132312 -0.0006782113 -0.001626888 -0.0032316532 0.0013552199 0.002479016 -0.0015554649 0.0019292425 0.0022817852 -0.0030497613 0.0006899407 -0.0022504833 -0.0014261138 0.00027103347 -0.002306234 -0.0013669727 -0.0025061716 -0.0023033454 -0.0023833762 0.0033172918 0.0027991093 -8.3441744e-05 -0.00091543776 0.0020532198 0.0004917461 -0.0030190267 -0.0023809334 0.0003712163 0.002695875 0.0010982233 0.0032965818 0.0021918474 1.9331668e-05 0.0029109078 0.0030428919 0.0026807631 0.0031195404 -0.0031556315 0.0011202419 -0.002598593 -0.002421041 -0.0028630497 0.0010930683 -3.2574808e-06 -0.0021049199 0.0018001758 0.002602762 0.0014298812 0.0025940659 -0.0014198608 -0.0021537195 0.0013337294 -0.00097439386 -0.002388125 0.0012895907 -0.001162645 -0.0017529927 0.00084223144 0.0023329929 0.002118686 7.560218e-05 0.0028375583 0.0010263408 0.0021968025 -0.0002963055 0.0006775617 0.0020521404 -0.0032478864 0.0019795415 0.00040966467 0.0020322327 -0.0004706459 -0.00090314465 -0.0018274691 -0.00095722015 -0.0008869058 -0.0017347139 0.0003287932 0.0027050606 0.0017055186 -0.0025009578 -0.0025234602 -0.0009879866 0.0012605385 -0.0031113822 0.0021091409 0.0011138612 -0.00089510204 0.0030222654 0.002701002 0.00026034642 0.0015638527 -0.0030799375 -0.0029299064 -0.0010207538 0.0030779804 0.0010574146 0.0018844458 -0.002250639 0.0013917352 0.00012843261 -0.0003119285 -0.0011048798 0.0017029417 -0.003045247 0.0017241467 0.0019259342 -0.00080528663 -0.0013848001 -0.0024812159 -0.0021785323 -0.0016624356 0.0010449089 -0.0015605493 -0.00041165753 -0.0030045689 -0.0012344689 -0.00028672995 -0.0027095447 0.0011061567 0.0032538255 0.0014552554 0.0005554924 -0.0016225814 -0.00040183828 0.00079524814 0.0005731726 0.0029140508 -0.0003008287 0.0023540228 0.001903081 0.0009989574 0.0024882953 -0.0017085538 -0.0012794907 0.0023189848 0.0028906695 0.0010832741 -0.0014228331 0.002558127 0.0008669805 -7.7713456e-05 0.0029466087 0.0014400486 0.0012644554 1.3004502e-05 -0.0030068122 -0.0010309882 0.0008249483 -0.001853686 0.0023680127 0.0025221345 -0.0029900551 -0.0018172321 -0.00199977 -0.00016876007 -0.00058482797 -0.00072922907 -0.0007654843 0.0011986268 0.0031792836 -0.0014781355 -0.0027893442 0.0012234128 -0.0021369166 0.0022867825 0.0009201529 -0.002683826 -0.0025518322 -0.0030996606 0.00076744496 0.0009060567 0.00085255184 6.06891e-05 0.00037163633 0.0010605543 -0.00048414775 -0.002730249 -0.00019608674 0.0012444427 -0.00084712944 -0.00071487814 -0.00071144 0.002419672 -0.0010117142 0.0031075657 -0.0012676514 -0.0033080417 -0.002168277 -0.0014214369 0.00045760957 0.00173668 0.0007145986 0.0030665207 0.00032982553 0.0019120994 3.9021805e-05 -0.00065276964 0.0020477858
staff 0.0006741417 0.0027711182 -0.0027544147 -0.0029132336 -0.00016485919 -0.00066444423 -0.00076448853 -0.00015914919 -0.0016884384 -0.002671943 0.002770475 -0.0011221295 -0.00095398637 -0.0005184494 -0.0004136263 -0.0030792535 -0.0005737204 -0.00045598636 0.0028656237 -0.0026759126 -0.0015808821 -0.00063029595 0.00095465063 -0.001997145 -0.0018612569 -0.0026555657 0.0018318318 -0.002887038 -0.0011055992 8.034643e-05 0.00051444 -0.0033183387 0.0028996426 -0.00067296537 0.0001379308 -0.002918892 -0.0026929523 0.001237125 0.00134583 0.0010082403 0.0019426162 -0.0023280082 -0.00041220963 -0.00092272717 -0.00046379317 0.0015072749 0.00047268785 -0.0024693233 0.001094363 0.0020833956 -0.0020278257 0.0010705338 -0.0014425226 0.0029790427 0.0013772728 0.00069424463 -0.00033439157 -0.0030203636 0.0028968514 -0.0005912438 0.0024712963 0.0012523674 -0.0027360208 -0.00019995362 0.00090500794 -0.0008291088 0.0032652125 -0.0016481983 -0.0024015487 0.0012760358 -0.0011908717 -0.002290807 0.00069793506 0.0017323309 -0.0018101033 -0.0014530966 -0.0023919242 0.000523461 -0.0015997975 0.0028093306 0.00021968852 0.00062418607 -0.0011334034 0.0025161759 -0.00021673292 -0.002734404 -0.0024376663 6.739753e-05 0.0026132623 0.0010354497 -0.0017530699 -0.0022606037 -0.0032711474 0.0013187913 -0.0031548303 0.0010645343 0.00056331436 -0.00027152413 -0.0033307283 0.001973386 -3.2394924e-05 -0.0032916619 -0.0025054526 0.002885671 0.0006298149 -0.0027490645 -0.000278135 0.0018052338 -0.0031330043 -0.002294279 -0.0003735348 -0.003269237 0.00018136759 0.0006589988 0.0028411334 0.0003462878 0.00043320257 0.0016145047 -0.0014021643 0.0023726856 5.374518e-05 -0.00020270029 -0.0032387332 0.00014907887 0.002249177 0.0006145332 -0.0027125648 -0.001128685 -0.0019955777 0.0020364705 -0.002127482 0.0017752502 -0.0017424341 -0.0023185448 -0.002512339 0.001294617 -0.0029355101 -0.0019170975 -0.0023726553 -0.0014742209 -0.0013496983 0.00046025147 0.0021359003 -0.0003961259 -0.001835092 0.00051227567 0.0018564125 -0.0017675941 -0.0017870222 0.0017102411 0.0021003992 -0.0026118963 0.0027423343 -0.0032823884 -0.0024725264 -0.0019230419 0.00057757454 1.588751e-06 0.0011466435 0.0023782242 0.0016007337 -0.001053932 -0.00216256 -0.0027244242 -0.00013420855 0.0032365532 -0.002564931 0.0012202144 0.001474344 -0.0014247164 -0.002336228 -0.0018079154 -0.0016719372 -0.0023312562 0.002000239 -0.0025843575 -0.0009929939 0.0014466788 8.475139e-05 -0.0025462983 -0.0015586091 0.001218747 0.0008306419 -0.0006706969 -0.0002716805 0.0008487469 0.0005133898 -0.0008503339 0.0018052697 -0.0025741148 0.002148751 -0.0033144266 -0.0007895845 0.002235481 -0.0011944057 0.0021443395 0.0018063475 -0.0024762012 -6.182405e-05 -0.0014985127 -0.0026945488 -0.0003044327 0.0021352465 0.0028861025 -0.0016656828 -0.0009013457 -0.002009113 0.00042078135 0.0008883619 -0.003281516 0.0007915556 -0.0029711365 0.00014449022 0.0015817899 -0.0017356268 9.501896e-05 -0.0007556366 -0.0029476362 -0.0008007722 0.0014613506 -0.0028454263 -0.0019719559 -0.00017336503 0.0026466146 0.00046517784 0.0032436375 -0.002547237 0.002994576 -0.0015898228 -0.0021216117 -0.0026027411 0.0005971682 -0.0009386864 0.0025429288 -0.00019808742 0.0008483215 0.0019924494 -0.0028724663 -0.00068328466 -0.0016132803 -0.0028761476 0.0011188335 0.0008021846 -0.00079612737 -0.00063194544 -0.002276538 -0.0010828755 0.00042784557 0.0025802974 0.0023788079 -0.0011926655 0.0011947148 -0.00082608475 -0.0015855596 -0.0012202987 -0.0020628532 0.0012108067 -0.0025880714 -0.0025347674 -0.001523055 0.0024698002 0.00060122897 0.0018462801 0.002714367 -0.0020902 -0.0015317707 0.0026103712 0.0016766931 0.001522659 0.003014893 0.0029310612 -0.0009058541 0.00034370387 0.0018125749 0.0029684869 0.0032987646 -0.0027366704 -0.0016942929 0.0016354386 0.0003240298 5.1885258e-05 0.0025035564 0.002129321 -0.0023870333 -0.0008687155 -0.002831828 0.0023387377 0.00094336027 -0.0007442498 0.0006437066 0.0025764145 0.0027389857 0.0020667233 0.0010737394 0.0005601168 0.0027374127 0.00045868114 0.00014719287 -0.0031593645 0.0008198733
really -0.00281784 0.00218115 -0.0019307612 -0.00058959896 0.00031334144 -0.000671094 -0.0030103547 0.0013597867 -0.0021981043 -0.0029374934 0.001322255 -0.00027333185 0.002155326 -0.0023069377 0.00023913587 -0.00024518042 0.0019531643 -0.003251121 0.0019651463 -0.0030254812 -0.0025939336 0.00024123437 -0.00088810845 -0.0012696342 -0.0017819322 0.0013878703 -0.0031390444 0.00040896802 0.0013701908 -0.00013048781 -0.00012440729 0.0023927323 -0.003153503 -0.0029938822 0.0014874915 0.002923376 -0.0025643334 -0.0027936678 -0.00021497475 -0.003024462 0.0006963696 0.0030430953 -0.0020207402 -0.0022766509 0.0029876041 -0.00022155367 -0.0012327404 -0.0008947024 -0.0029031863 -0.001550129 -0.0013754171 9.848895e-05 0.00023644384 0.0025869776 0.002285769 -0.00049800123 -0.0033337176 0.0008811843 -0.002041808 0.0030407358 0.0012802448 -0.00034841435 0.0022173275 -0.0011228293 -0.0012342172 -7.584311e-05 0.0028059257 0.0019817443 0.00050058786 0.0012720132 -0.0009893294 0.0030999668 -0.002351788 -0.0011069814 -0.0017312529 0.00292138 -0.0010372992 -0.0007802669 0.0023890152 -0.0032417027 -0.0010004956 0.00096182857 -0.0021088962 0.0029932195 0.0003912247 -0.0017472646 0.0016634389 0.0026717996 0.00034783347 0.0022899483 -0.0022477552 -0.0012148618 0.00332265 0.0018940421 0.00055651687 -0.0011613029 0.0014871508 0.00084109226 0.0027707664 1.3341316e-05 0.0028687397 -0.0019381485 -0.0025258276 -0.00044227074 0.0009852655 -0.00070070435 0.0019636804 -0.0028078991 -0.003030541 0.002526718 0.0020711725 -0.0013658068 -0.0013090265 -0.0011979192 -1.4243492e-05 0.00303711 0.00031627537 -0.000697781 -0.001101338 -0.0007545762 -0.0030625977 0.0023015554 -0.0030103687 -0.0010649714 -0.0023788274 0.003058224 0.001899029 -0.00016998332 0.0013171888 -0.00077774434 0.003295991 -0.0011810636 0.0016360906 -0.0013044872 0.0032092785 0.0031982278 0.0020659762 -0.00010382219 -0.00058350764 -0.0028997476 0.0031184275 -0.0028479244 -0.002226321 0.0018771873 -0.00077212666 0.002650701 -0.0026555988 0.0030490165 0.0007587619 -0.0028657771 0.001334074 -0.0016697114 0.002148604 0.0021855508 -0.0029219599 0.0022154218 0.0017035985 0.0021614484 -0.0023801676 -0.0021449735 -0.0029499598 0.0017685827 -0.001370348 0.0016424988 0.0016180468 0.002691001 0.0007126342 -0.00036345306 0.0005005697 0.0010104849 -0.0029376973 -0.0019790446 -0.00031096197 0.0016232606 -2.773297e-05 -0.0032167118 -0.0002385531 0.0023613726 0.0021366046 0.0011921315 -0.0015426311 -0.0012098962 -0.00073498656 -0.0020158803 -0.0029005622 -0.0001820202 0.00066475617 0.0016627433 0.001232855 0.0028265668 -0.00222526 0.0031097385 -0.0011565775 0.00027103804 -0.0014218141 -0.0013912898 -0.0005133472 -0.0025209987 0.003002966 0.0015101618 -0.0007685012 0.0006365971 0.0025994983 -0.0019000457 0.0013089138 0.00022749066 0.00095735636 -0.00068043044 -0.0032817756 0.0019718558 -0.000500691 -0.0028192345 0.00026132347 -0.0020794477 0.0025910763 -0.0021313268 -0.00057672587 -0.00020103744 -0.0014345299 -0.0011897959 0.002468624 0.00062770065 -0.0031063652 -0.00014541365 -0.0031802908 -0.0010592206 0.0016815728 0.0012257759 -0.0019266686 0.00048187262 0.0019470551 -0.0025111907 -0.0011314774 -0.0007838537 -0.0030126208 0.00071856 0.0021665865 0.0008264235 0.00080612156 -0.00030287102 -0.00026362148 -0.0021213891 -0.00017125059 0.0021824 0.0009928014 0.00014560614 0.0026212682 0.00091067504 -0.0024731643 0.0024504235 0.0031893966 -0.003035548 0.0024508797 -0.0025435132 -0.0001235535 0.001519636 -0.0018630743 -0.0026351633 -0.0024604881 -0.0033220502 -0.0022216265 0.0031656036 0.0010079804 -0.003050356 0.0028138268 0.0024115483 0.0026623434 0.0032330088 -0.0029463493 -0.0006977266 0.00067072624 0.0007879332 0.001616763 -0.0025834308 0.0015894577 0.0033030952 -0.002961651 0.0026429878 0.001021302 -0.0013843421 -0.0004960946 -0.0028168699 -0.0025131465 0.0018651937 -0.0010328074 0.0033256835 -0.0026913844 -0.0023230142 0.0020483478 0.0026429251 0.0012515001 0.002443387 0.0021907617 -0.0019043597 0.002944167 -0.002076245 -0.0009314585 -0.0020093613 0.002068546 -0.0014810527
friendly 0.0010197695 -0.00050294324 -0.0004052053 -0.0019569744 -0.0019202898 -0.0012352847 0.00014000031 0.0005397748 -0.001094692 0.0006337921 -0.0018690374 0.0033123896 -0.00029009924 -0.002287212 -0.00063057203 0.002631637 -0.00034528814 -0.0017103615 -0.0026852486 -0.0019893663 -0.0010683858 0.002572184 -0.0024154822 0.0004909488 -3.070458e-05 0.0013283984 -0.002679303 0.0026618028 -0.00096271123 0.00173224 -0.0031579542 0.0016915667 -0.0027265404 -0.0010677101 -0.00038852385 -0.0011838501 -0.00022503042 -8.60684e-06 0.001522873 -0.0007566188 -0.0013461408 -0.0020805814 0.0027672537 0.0015230766 0.0030527224 0.0018594738 -0.0015338956 0.002778399 -0.0023033195 0.0010278926 -0.0011135126 9.609575e-05 0.0012576618 -0.000893327 -0.0014615662 -0.0006235625 0.00017399514 0.002171277 -0.0019400576 0.0015726094 -0.0012280659 -0.0026615441 -0.0018527427 0.0006345703 0.002918345 0.0026588184 0.0030590068 0.0023137426 -0.0010049484 -0.00079949724 0.0029412264 0.0021925685 0.0020366 0.002268733 0.0005762641 0.0008019241 -0.0027379899 0.0025138275 0.0031480112 -0.002373339 0.0003677613 0.0029232989 0.0011962649 0.0023830277 0.0025493896 -0.0006391925 0.002970894 0.0020010404 -0.0005934626 3.225556e-05 0.003251409 0.0019330722 -0.0022120478 -0.0011483624 -0.0011339453 0.001058073 0.0003924887 -0.0028672758 0.0007206376 0.003221353 0.00079349545 0.0014362074 0.0006682093 0.0027170423 0.002952176 0.0010164763 -0.0008026869 0.0012031342 -0.0025968594 0.0026662447 -0.001366135 0.00328775 -0.0031753278 -0.0008551761 0.0029553862 -0.0013373463 -0.00064744137 0.0016736021 0.0031244033 -0.00017915451 -0.0022458117 0.0033431575 -0.003171702 0.00039640948 0.0018384812 -0.0025721185 -0.0018941564 -0.0030737473 2.5442364e-06 0.0017002334 -0.002713554 -0.0010001682 0.0028199656 -0.001530269 0.0010813657 0.0012000921 -0.0011988924 -0.0017313926 0.0027508375 -0.00087212975 0.0029845452 -0.0008380122 0.0009821838 0.0018930516 0.0001821928 0.0014663278 -0.0020227162 0.002789088 -0.0005378232 -0.0014764906 0.0017142548 0.003288497 -0.0018771184 0.0002720858 0.0014371814 -0.000870821 0.00018780462 0.0029262651 0.0025522634 -0.002108976 -0.0010795855 0.0030902238 -0.00013109375 -0.0031547104 -0.00024449016 -0.0022712382 0.00029150303 0.00028027518 -0.00145361 -0.001501687 0.0029226462 0.0015356952 0.0008632285 0.0006192972 0.0027694185 -0.0016562241 0.0020152344 -0.00035759254 -0.002545129 -0.003204039 -0.0005609286 0.0027248666 0.0006938142 -0.003007459 0.0003828527 -0.0012136868 -0.0012901222 0.0027572317 0.0019707454 9.0900336e-05 0.00083409157 0.00032942064 -0.0033424096 0.0010014537 0.0023806617 0.0013002711 0.0008121451 -0.0012055776 0.00079998083 -0.0025403844 0.0014040181 0.0008100287 -0.00013395154 -0.00022094093 0.0009204127 0.00072292617 0.0004976531 0.0030796258 0.0011924398 0.00045770718 -0.0009944957 -0.0020762128 -0.0030858747 -0.0010985192 0.0014752153 0.0025180518 0.00018008408 -0.0016350166 0.001184085 -0.0013424513 -0.00023597134 0.002959051 0.0027104004 -0.00018363366 -0.0019678324 0.0012175097 0.0033014116 0.0028811716 -0.000650136 0.0023739426 0.0030919542 -0.0031963547 0.0029532746 4.0014595e-05 -0.0017774521 0.0012401537 0.0030005842 -0.0023979293 0.0023174828 -0.002176881 -0.0025859778 0.0018101187 -0.0015270155 0.0015840129 0.002464612 0.0031850834 0.0019072226 -0.0029843613 0.0010899925 -0.00298059 -0.000113158865 0.003251085 -0.0016589331 0.001340775 -0.0019157578 -0.0026861667 0.0027006895 0.0010865824 0.0024303566 0.0009535337 0.00039283998 0.0012266438 -0.0027704646 0.0021606102 -0.0015156512 0.0015406604 -0.0017869163 0.00037823914 0.0012954964 -0.0008070341 -0.0025238735 -0.002025672 -0.0033111726 0.0032247456 -0.0014755084 -0.00032656922 -0.0029752357 -0.0015007725 -0.0016679175 0.0010146422 0.001892408 0.0011797932 0.0032699755 0.0006443 0.0032916234 0.0025239002 0.0009093191 0.00071605627 -0.0024931324 -0.00078418816 0.0019005971 -0.002674058 0.0007792724 -0.0025099292 0.0032714298 -7.5854114e-06 0.00031982732 -0.0015925793 0.0020537023 -0.0023835865
